{"sizes": [660, 100, 30, 15, 2], "biases": [[[-1.914040089566649], [-3.3223814788170283], [-2.274022580720979], [0.27703215598711367], [-0.07822214607255114], [0.8273421624940042], [-3.295812718441148], [-1.569145709825549], [0.4332682537259538], [-1.8353469448254631], [-2.5123548220882554], [-2.770582805949925], [-0.3615651711271868], [-2.5685056262386046], [-10.5132877827872], [-1.0022227323498258], [3.481917486500948], [-2.7951048913392493], [-3.5321001881348013], [-0.16435499143636423], [-1.2821295915726405], [3.0180334233066826], [1.400941821762904], [0.23912837845322654], [-4.3192994898927175], [0.3340419281249703], [-6.5120310122453775], [-4.5272259834943895], [-3.3322084156480134], [-2.206994148847866], [-2.745248183636131], [-3.46492787060904], [-4.789841768232095], [-0.3830407143916554], [1.5887698228090255], [-5.717066740997618], [-2.6006271437725808], [-3.3849053754056575], [-2.508217847393225], [-1.2545202537934546], [-1.189504644820714], [-1.2914170126021516], [-7.386669330232081], [-0.42411356541823003], [-0.1672308104797644], [-6.550555804438708], [-5.074881589015141], [2.3299809016663664], [2.3546377306168047], [-1.6224298215637314], [0.33443005746686705], [-5.3183081929665565], [-3.5911504648115544], [-1.8057419562000019], [0.18415038367433606], [3.1056120326436156], [-6.631560318189542], [-5.827438481525461], [-2.5668642300871607], [-4.1141102495788955], [2.3246635320392195], [-1.101865791833063], [-4.6461610826602255], [-4.131345680666758], [-1.2064603283073172], [-2.0472744804700214], [-2.729646403127752], [0.44765806551066023], [-3.591659594151047], [-3.2912944490579377], [-8.282368280272797], [-4.575569273521321], [1.1817686052978889], [1.1514062311221098], [-0.4471274649888763], [-3.442130583953127], [-4.497858933980698], [-2.77733913152663], [-3.758567268010134], [-8.196921104022252], [-1.2213146908003596], [-0.6718018313600302], [-7.714976878744267], [-3.04932136281965], [-2.4485395138485004], [-5.492444572152056], [-3.3938196815728077], [-1.0764160983872537], [-1.7989589415098741], [-3.1407770566706144], [0.9500640795645804], [-1.988134147126311], [-1.171789577857244], [-5.283477098714979], [-10.706592169392444], [0.6047344441115523], [-1.0566266122569015], [-0.5572077445298367], [0.3431411625934527], [1.7316501448523078]], [[-5.272460313141865], [-2.8127217875696795], [-3.6873322407262363], [-3.3433440097933733], [0.7509729473991855], [-3.198564913923717], [-3.9547945515808958], [-2.182506645654221], [-2.295904599548024], [-6.252219681880937], [-4.135279886248548], [-3.687543961157243], [-3.8301781542644027], [-3.335311039942232], [-9.747451808746549], [-2.8571993101593196], [-7.560206735995123], [-4.540983310779415], [0.030728023598347344], [-6.47240700335099], [-11.240137123118647], [-2.1303687853448663], [-5.400725440559069], [-10.041163960514904], [-3.2443170113681354], [-2.608654631377441], [1.5811801084447217], [-7.66081641921119], [-3.0276068676281707], [-12.092115615144762]], [[-2.0818391175993276], [-2.06730873059305], [-1.3003436991312662], [-2.0601355961624472], [-2.0641815645451955], [-0.3386359547414949], [-1.7182265690119987], [-2.0556959376881796], [-2.236021371519408], [-2.067634206903938], [-0.6881741517335147], [-1.6094394445844182], [-1.9037321958254232], [-1.3181395223520167], [-2.084752726308517]], [[1.7109580054964548], [-1.7109580054963676]]], "weights": [[[-0.052101918913546603, -0.1449803339709445, 0.15919992577181408, -0.2540660311161055, 0.49929412282193664, 0.06812630545568735, 0.10791642130688325, 0.26492389858416737, 0.28594909154982606, -0.2791254518899788, -0.34821184682362716, 0.7280323915796442, 0.504415208838842, 0.39585353620740227, 0.4834645125351477, 0.24280172613000212, 0.00356607235552622, -0.6976020270096269, -0.46314166123675055, 0.03416579935702782, -0.26123769793019586, -0.02794069608821763, -0.16944088563025447, -0.39557761593886215, 0.20076019984332252, 0.12812164688188535, -0.06385752351023462, 0.34131762285582706, 0.5514719348487082, 0.5009057928992591, -0.08031561049409128, -0.29769555908603956, -0.1970032681142561, 0.09685860288981106, 0.34429028959452107, 0.04371611759961246, 0.33108922357285625, 0.5249872066800019, 0.3031070515760624, -0.13684466684956478, -0.22691963359732448, 0.48431466149985725, 0.7005986833467136, 0.4828094791246871, 0.1736658900474147, 0.21858640639123791, 0.006086561622564172, -0.910827460080962, -0.6934151427170159, -0.3707548655684055, -0.48306533755226094, 0.019218759202599755, -0.1742176772387128, -0.37518088744104006, 0.1596039184292811, 0.28854111201154925, 0.13967362334558536, 0.37072622690107154, 0.40305036919105103, 0.4139565924997217, -0.02730484118140463, 0.06714939991764955, -0.41061515308099866, -0.17030575521274585, 0.22964525700968114, -0.19263348201088357, 0.30162572131407367, 0.16408121262033057, -0.028214783423389955, -0.2515773163725757, -0.09333694466411162, 0.7404106230107539, 0.826206714763383, 0.5465767685348565, -0.013979655086900264, -0.02648929000810678, 0.10486100136163838, -0.5985186590649444, -0.6487979436229144, -0.3369046699646698, -0.4342354644095246, 0.15624526989880397, -0.01538278215464459, -0.4109570223641662, 0.023505014762052176, 0.2310447762099194, 0.20591470121820707, 0.4765239232385496, 0.6664243021646313, 0.5395536859172837, -0.14576003510558602, -0.1848822395026328, -0.4274178229825, -0.0718398982066223, 0.009112313972489402, -0.27306545720175757, 0.44645856269319883, 0.6414753464969511, 0.21829326941521462, -0.36865462872776616, -0.21768988076900786, 0.5230151665318532, 0.756321544549313, 0.4069615662822473, -0.08628478454678905, -0.02977567603510359, -0.07216579387168927, -0.72918163811958, -1.0396095409770416, -0.48538013737847385, -0.6722601742157178, -0.2278127414638641, 0.011597067088041129, -0.4167363562761924, -0.010876192909699833, -0.02792474362848721, -0.08428760393766264, 0.2470367286685905, 0.2842076561359918, 0.22570715497021596, -0.24670518015156362, -0.22088849448118167, -0.42738615493683113, -0.09344674263385494, 0.153210770955444, 0.11809949041233668, 0.3004741843616964, 0.4750783825864485, 0.21317247529752728, -0.5367918381843325, -0.581579917468349, 0.4835866205439555, 0.6031747925235312, 0.2309395628569746, -0.03342497237027544, 0.048743533332741035, -0.2455652884783503, -1.1916855850502939, -1.004867504631802, -0.2642802871138017, -0.15634793950663495, 0.06220696611039782, -0.07103202019665437, -0.29990291375742173, 0.07513786466174838, 0.1414019831139033, 0.23189175961783753, 0.37435811587373197, 0.43808987468972665, 0.4253809341975335, -0.30818514627723975, -0.26451286860503, -0.3483474106210867, -0.5096197826905781, 0.1946587796278648, 0.19086878498194676, 0.4810723766472276, 0.5059924144116696, 0.24161714311274457, -0.5215227315333529, -0.3923351165345468, 0.5492496429177661, 0.424819763749105, 0.4026447317585251, 0.15622542909893566, 0.3770178151353875, 0.1720386903223616, -0.9514391026786879, -0.954461713266054, -0.5286621642979255, -0.49243627642616666, 0.05504415682895073, -0.08010346964599302, -0.49425136663019964, 0.01930702873519983, 0.06869022333786065, -0.10320796404526278, 0.188861285442096, 0.3927003173937745, 0.30334057689332133, 0.03783274789388966, -0.028246260625544674, -0.055147535295713965, -0.05133350424187848, 0.4751602582491991, 0.025447863247818378, 0.1613807935602262, 0.02380830068169462, -0.20674252908814347, -0.19035269496584933, -0.14749642754222286, 0.38670278938322167, 0.5116579264431032, 0.36894886014265077, 0.32017896973482096, 0.3754101166856403, 0.07396833697776005, -0.9781547126588459, -0.9147293688707356, -0.46890009306915964, -0.23773725522636446, 0.09376053111720076, 0.016576718811039892, -0.5372871944045786, -0.11363846225443076, 0.1494659305314221, 0.04717120291843219, 0.48546799420702075, 0.6177887105835663, 0.36222204168038535, 0.16127191015167547, 0.007309035427450836, 0.0734126796023169, 0.031784831991280994, 0.3404250269971127, 0.07322894244731543, 0.3943014908841354, 0.3848244327264152, -0.007075591148200708, -0.7419295968792763, -0.7113942345786571, 0.22046111897713014, 0.3369026605284775, 0.3574024416733883, 0.07615223058643855, 0.3677946295919387, 0.13385870713058226, -0.8428996068448495, -1.1113454848549902, -0.4198935220910763, -0.3311839717614013, -0.036818755897153034, -0.15453689456222444, -0.3439741184533292, 0.048708106829061286, 0.16215150420391766, 0.0732052932271772, 0.4904790356769543, 0.6615263375771093, 0.6609065957402186, -0.06708372893660845, 0.04048833195242816, 0.10055335860198188, -0.024130350983640577, 0.3844289727804275, 0.14565089417440336, 0.39083827137622723, 0.49934935288326693, 0.18897389056298253, -0.203733789333835, -0.03946022177079515, 0.7450176095171835, 0.4982947869709461, 0.25978841517165185, 0.07367250510944152, 0.2610118400652031, 0.08241728310463435, -0.6961109463332362, -0.7250351771976074, -0.2700784316856142, -0.16082366136581924, 0.24021817574794033, 0.14314776872579843, -0.4035119841011376, -0.21242689155096117, 0.06735334933710393, -0.013254875577902694, 0.24629617050601238, 0.49627850349689234, 0.35354764410353834, -0.21516458154676885, -0.16816089555953542, -0.2074587552180786, -0.13585420373892018, 0.11569714918266065, -0.028760884639883785, 0.41079178333113064, 0.282297469194953, 0.3099802095334264, -0.14204514702926124, -0.059205092552662895, 0.635463710706111, 0.5544179172248537, 0.33223814904224963, 0.21706876024610727, 0.1824546903927291, -0.168115238005873, -0.8918382720149199, -0.8669230399851379, -0.42224935837355415, -0.31493914506148696, 0.2287177925659272, 0.003350216496839903, -0.4606878904334184, -0.120276664167719, 0.26857098895596526, 0.11009317969054157, 0.44150441956860614, 0.5499909369327406, 0.541746459635761, -0.11308479204033048, -0.04765216061758305, -0.2575396122868981, -0.029572325369960184, 0.5235807536376264, -0.0642454872660689, 0.6038183723681053, 0.8174298546843641, 0.28873564692370834, -0.28391190370293445, -0.2247423712177044, 0.7040363597844841, 0.7645694431441901, 0.7080613685331962, 0.10792284624809008, 0.19883685691771286, 0.023979038429985333, -0.9621134311073137, -1.019332642302522, -0.4279944590039439, -0.41133484403665066, 0.03779775282999259, 0.06314574446307776, -0.3834140351189185, -0.00042532594972714225, 0.14761612976297125, 0.05201840328392628, 0.406751195492988, 0.4854210025419058, 0.5173766520211918, 0.2480621386279617, 0.21495806806692777, -0.11849327779180013, -0.4624854516796591, 0.11359778550657641, -0.10761902117404124, 0.3967587296382966, 0.0567214991679445, 0.2240213091962071, -0.40665314881395576, -0.45340686972750677, 0.332670355427078, 0.4481207342758695, 0.3938169437886675, -0.16703852383999135, -0.13030778498511922, -0.1818696629391976, -1.06830129773785, -0.8389927619543756, -0.23712958293762945, -0.28283729294979576, 0.013044488661173245, 0.1560106517784424, -0.2431428876038, 0.09397043372876754, 0.25076460188118915, 0.23430055640575748, 0.5444485974754419, 0.5159477812169382, 0.4934011945839128, 0.06222026022406251, -0.28803828441461626, -0.18508692176969835, -0.2787116913769862, 0.06686526166664465, -0.11815021956005757, 0.16100855276277795, 0.1327244049467408, 0.10130923649787738, -0.4807685729084882, -0.34090846076057646, 0.5444081433478623, 0.7330200493605408, 0.6025645156932503, 0.2546146401611028, 0.41813759499053266, 0.300414626535571, -0.6916473557335913, -0.6984190689295333, -0.2667716488725748, -0.239358714751809, 0.25615226027776167, 0.1128158959767655, -0.23308536652324172, 0.14413447886564493, 0.20690880248239338, 0.07379513914135873, 0.3747268130590702, 0.31479258848015973, 0.3481744146157832, 0.25204554045121835, 0.010309106985359227, -0.39650781708500854, -0.4542621740611941, 0.39946349459552793, -0.10984057820925466, 0.13107154643937868, 0.29734650900633475, 0.4002871275800458, -0.16044068214247115, -0.17117232446467556, 0.25723886889000513, 0.5235293872057487, 0.5405632897553004, 0.29342641194709446, 0.3331043459567502, 0.16047760961937985, -0.7144779601812774, -0.9846396604761575, -0.5426916684063955, -0.5344029730092787, 0.09219255275076788, 0.13262357435859534, -0.19634578209600773, 0.2105088391842187, 0.39427515938800517, 0.1864024472866772, 0.4311953706035987, 0.5387217172334956, 0.4303130950662275, -0.1389638284511042, 0.15563547101526037, -0.318709498915174, -0.24890703864695385, 0.004439794748781039, -0.33787600459234435, 0.3168257789031136, 0.428509428203501, 0.2421752394367118, -0.23054913874895938, -0.23430180983762022, 0.5044760723377585, 0.472768497170611, 0.6243577589861264, 0.49295185285163, 0.4242317604265655, 0.1775187111560636, -0.8466196030265625, -0.7857711998546, -0.41992981731222173, -0.5534065781560302, 0.09516546950440648, 0.14060089536600182, -0.3891737020685456, -0.12082922673766111, -0.03193213516116692, -0.03266462952080859, 0.36312026413180304, 0.4487922213968624, 0.35701264746626776, 0.20036407939756162, 0.30509401887999804, -0.22107967687830207, -0.2529277077685665, 0.2773470541809597, 0.007829539725320646, 0.18590803775942855, 0.27931644164677294, 0.3211879147159794, -0.15155486116077568, -0.3073779534250888, 0.3729679025436331, 0.4865645507116584, 0.5237091803361114, 0.17169297657765523, 0.2111120489412493, 0.0305942876598481, -0.8015645655564722, -0.6519544486989808, -0.2655515713846891, -0.27199944293092476, 0.1636151124229131, 0.031856761454132854, -0.31781373163340054, 0.1745050748045608, 0.3370471976520189, 0.12459146320641454, 0.30116544190709754, 0.5901855994804951, 0.5185788016589667, -0.1445791034844681, -0.16154028020604802, -0.43492621350477356, -0.27171460808996, 0.26767936132733355, -0.1841430589091182, 0.14331667462642286, 0.41078549107005485, 0.2911535499682456, -0.3936770484413944, -0.33806933020575675, 0.41106847670110186, 0.46650928046622575, 0.691138557228952, 0.25966317630869046, 0.26580287471558944, -0.06145892111888276, -0.7740982026990132, -0.7629689243668976, -0.367547817366385, -0.37274437611550454, 0.031512585176125436, -0.020917835635738326, -0.3183427720258009, 0.008610049097361908, 0.38816700704080453, 0.00969707919271914, 0.2654896055592426, 0.3456769950622232, 0.3020067146317351, -0.7802209691623034, -0.2709843724574949, -0.4322652987866975, -0.5148552368666708, 0.03845554231072113, -0.013861968839222395, 0.13339973611889908, 0.08988681034423983, 0.17722397674797968, -0.24492831108938062, -0.3757788522354331, 0.334320614782689, 0.477742254319295, 0.36824208408753956, 0.08907290288500078, 0.202349727182956, 0.17832258744260554, -0.5626557907294463, -0.7003984930623577, -0.33397255218679744, -0.29670495020572396, 0.2798122633104515, 0.0976697954635101, -0.34565694638417105, 0.04250159753893797, 0.32045469751532546, 0.18088814410910267, 0.34044840853414715, 0.5426786731572429, 0.4704402965952444, -0.45471249943391817, -0.24114845785657898, -0.2551497958949054, -0.4471108593484787, 0.16355340424980122, -0.2227894394047748, -0.005883782383227967, 0.5309866020854386, 0.4576746776505434, -0.1877207248908655, -0.363118998081841, 0.40428685455973723, 0.20803648694338014, 0.2242182308427313, 0.16856423508603438, 0.41546897331031823, 0.2354830335514673, -0.828064853578582, -0.7831108120563305, -0.21411909816664748, -0.36813826824079804, -0.007532133780888912, -0.052949552471962154, -0.36870035432539766, -0.011117484091016273, 0.07083452388821697, -0.011922664345018062, 0.41382603185708455, 0.4278130700485901, 0.47451227561833603, -0.23162431203405637, -0.04697450273074123, -0.135581193074728, -0.23016009123017472, 0.142721797524285, -0.16160648252145632, 0.26497267610087555, 0.344631635377827, 0.3987890900521485, -0.2824155088270284, -0.18601771881796797, 0.5018576915289195, 0.4748054543098156, 0.5049919095873097, 0.20880317963035955, 0.485469505471526, 0.24903009611488647, -0.8334158982803548, -0.8413453799534965, -0.36441443704504595, -0.5521148478234333, -0.10040349473323333, -0.1935055208128218, -0.4754949925474215, 0.07095904422388909, 0.3320609192288724, 0.08719319057782246, 0.28971868637080767, 0.2519191629298941, 0.49219691193216136, 0.20092857402646042, 0.18075675861943194, -0.28817127740875176, -0.32440995915635334, 0.12278409739039345, -0.0521831041039989, 0.15653569638336964, 0.2963777156343158, 0.2800878910287738, -0.4424566615567145, -0.1529135209801351, 0.7013161281537712, 0.603435231760286, 0.44730016154580843, 0.0449774148947173, 0.16030926407168333, -0.009201484280150326, -0.9280299420004215, -0.6969944183213203, -0.2519610755558943, -0.5567421180421914, -0.228278725698717, -0.07311762232026296, -0.39117569880925296, 0.004727956051255646, 0.29785940469070155, 0.05420954556068021, 0.3940184327962377, 0.4584949094007064, 0.33737436490652895, 0.21506975519733826, -0.05777272441904085, -0.14652888838932596, 0.39192798995642847, 0.49021459362828007, -0.13000744719512086, 0.09665040995110187, 0.3476491626018783, 0.33264743871605384, -0.2515176086921827, -0.2976395374829631, 0.45710566997710145, 0.5563427735796161, 0.5910239986478653, 0.18665452455558354, -0.00042505521116913895, -0.1696869618329002, -0.8836464601147759, -0.5744006439739103, -0.2507865350653807, -0.6076127355393917, -0.22323998110848514, -0.1260344904707004, -0.2929662161300701, 0.02209561704730586, 0.2552640681957821, 0.10587973055288957, 0.3502785843223417, 0.41289308911306677, 0.403107635491719], [-0.4086807547092559, -0.2576417746845976, 0.09456266879039893, 0.23201181321746514, 0.11206295641365327, -0.006590390924306897, 0.22563878357717043, 0.24069927466902497, 0.09005465660259072, 0.16145216649181304, 0.087463414290388, 0.23920314885938845, 0.03957123747498046, -0.06675659328214092, -0.3002377543010619, -0.32085706294490113, -0.137306529641858, -0.22901556518576552, -0.14215630961126038, 0.01602231667118334, -0.09070149429347105, -0.0368189499824369, -0.03417661428847701, -0.10971414577404966, -0.05100711520423828, -0.07362334192401336, -0.2071804273595683, 0.0095789867145301, 0.014944885820063312, -0.04193407529230852, -0.5006174650089276, -0.19714551071036285, 0.08696741405917094, 0.3223508126963316, 0.07539256383919109, -0.07641402428200549, 0.1839318819112175, 0.17380098269392996, -0.014256977614377242, 0.108244457614792, 0.12458972752582653, 0.3178535377408566, 0.13964090441794544, -0.15596877793121663, -0.35419956660975016, -0.35166150129482393, -0.10423688457301512, -0.2018304660892385, -0.10574504214043447, -0.06517389723462813, -0.016937423992002838, 0.0739193325162693, 0.04388002764589408, -0.12563750837923066, -0.034467505257713076, -0.07806429888942439, -0.17483009123939325, 0.00856644380495989, 0.03933373215123807, -0.055523262084503484, -0.33372817221275036, -0.3490445208310826, 0.1342960943498404, 0.3087691619583399, 0.06805355572529347, -0.07357883794017478, 0.17620652550260638, 0.16419036889069075, 0.01666777269030187, 0.19799722606718773, 0.16074155689289626, 0.3244797801738028, 0.1272695252317005, -0.033647627943124855, -0.23028598384492277, -0.2919369347583994, -0.14824345292873053, -0.16300584792325318, -0.08775142173311663, -0.022838458765984917, -0.07924441615126848, 0.05858136356380541, 0.18423188316385097, -0.04890050008062435, 0.030002344505011987, 0.0903362203453666, -0.059109911062032644, 0.0448638287119139, 0.06742975926335668, 0.03413107238865124, -0.5364747062986336, -0.4460357805381725, -0.041182534174415544, 0.24487370035926956, 0.008233450105810659, -0.03651096326731295, 0.23736598148379695, 0.2522796842398292, 0.18763243406304367, 0.21091920951093274, 0.1132059410635033, 0.23658546556595692, 0.2020737337308258, 0.057661954566175205, -0.19534078922923026, -0.34837705631592547, -0.2207338876126587, -0.24242110372387152, -0.25601656790613003, -0.10896400078862983, -0.12451061739045338, 0.11673342683142154, 0.15432054446534915, -0.1031618448466669, -0.02316453785212519, -0.06558486262810784, -0.2302679342778532, 0.005014518900837692, -0.05861792369484293, -0.14205556992155507, -0.5296854913484992, -0.45012129120421596, 0.030010085601206143, 0.09103600303369104, -0.01815141650051466, -0.03129026098681774, 0.1422533471064512, 0.19685002799260945, 0.13354304873484565, 0.1990772614605952, 0.03790314223086397, 0.2049400150396998, 0.11795188148546312, 0.0014273377457064528, -0.22115219340805606, -0.23448194835702696, -0.019952442702267773, -0.20207546667230614, -0.11636518735901487, -0.09131507481639682, -0.044137303159108625, 0.14365182244134317, 0.1817468923348133, 0.00917310681488439, -0.01563010588610595, 0.002931334205337963, 0.014021674732643137, 0.11947244360992476, 0.15699273422998444, 0.0758430739302366, -0.4257197219010739, -0.3204799291531335, 0.007486181019205308, 0.0024063257282420716, -0.057288467540031245, -0.03528779270844163, 0.1322574440286181, 0.27888112686033567, 0.1640369692765752, 0.15560877822532523, 0.09926908621686767, 0.26150436934031807, 0.013816066197712243, 0.04524318684234766, -0.23801496314340698, -0.37189588236564386, -0.15629793004501955, -0.15389638469898767, -0.0971873932944979, -0.013791519725942124, 0.0670009278781451, 0.20728698419069494, 0.19724280090907223, 0.019272279793577488, -0.008593890914181983, -0.014272693565216875, -0.09771510152913912, 0.057297469776144305, 0.09369497069464025, 0.0179980160635454, -0.339051189603262, -0.10845270246899415, -0.028820211541297193, 0.13730797641572856, 0.0931849650398881, -0.014576140918252625, 0.10606488960331446, 0.09324075190851101, 0.00890983115811812, 0.2921337301837423, 0.1531910664917676, 0.29697332007698923, 0.16712550205715632, 0.044051473392683914, -0.31344408470063495, -0.34283896880363207, -0.1556352429095676, -0.187594881143349, -0.15171763317395, -0.092955469328741, -0.05117282039703203, 0.07117027901153204, 0.08875281281455918, -0.12956770532945705, -0.16380452992039976, -0.03186392479568339, -0.088620552902027, -0.0371906884683513, -0.006615206771188538, -0.0911228054141531, -0.5080889103744353, -0.3214707033486507, -0.01488114807803532, 0.31179458800702853, 0.050176631216349445, -0.11563223982011914, 0.0827328842804322, 0.12083972621112943, 0.035369947296836436, 0.06589761267074659, -0.03612997006486497, 0.10740301311265228, -0.01590634250946472, -0.20568821331696532, -0.42993910362748805, -0.39559413699977347, -0.24419725908220713, -0.26921265068423644, -0.3080614397648213, -0.18573302689581417, -0.08308318347677135, -0.010828054494887898, 0.10442659873404746, -0.057052440174578785, 0.009029953976507901, 0.0024098836997446297, -0.11106011378421561, 0.0010432790361570227, 0.08698417486176294, 0.04530822522306251, -0.5531110521685866, -0.22854074670402036, -0.015319953896709834, 0.24967305477566087, 0.12751020302846786, 0.0002187332907443449, 0.022771028217691894, 0.11335489757182718, 0.0006394139495299637, 0.13530880619475683, 0.11516769766194596, 0.3710429591201815, 0.03292051654082483, 0.017949806193410352, -0.24174359464967204, -0.34343510565330143, -0.1895719195087764, -0.2570832034246775, -0.22804085976496588, -0.07924859392511392, 0.01920496576508195, 0.1437486296889669, 0.12598390443189333, -0.05098442675275465, -0.06712095984273891, -0.019222826408501488, -0.17301857019794112, -0.031378258212863094, 0.06419691733066119, -0.02840123414040924, -0.717780543868189, -0.31470611899244966, -0.18936811039611706, 0.03748874595697205, 0.052752879560954584, 0.06002051837364631, 0.1972193639350815, 0.1429506549165153, -0.012208390018580177, 0.0725049153873899, -0.008320682895565541, 0.25107470732012005, 0.16088563365362193, 0.024561654097096507, -0.24953163218367708, -0.3101057498878421, -0.15918098336503242, -0.15256044452906112, -0.1653355196647393, -0.08363934819581273, -0.03662516252248754, 0.08816176017798563, 0.20273300367865696, -0.02564891790953568, -0.0614958758451733, 0.0009293521615360952, 0.030707525960964217, 0.1729927994902578, 0.1850016959361452, 0.15919743529659486, -0.6138127922741966, -0.46433590294521726, -0.14947241604213438, 0.2454863846802325, 0.14048732833229252, 0.04297996840942176, 0.2972832187350831, 0.2968270853555213, 0.13816189633549955, 0.1324740472097633, 0.11310989999421792, 0.28208496507804703, 0.15986366703978278, -0.07084056436449129, -0.3727840809113741, -0.4692000359774763, -0.22553879760281312, -0.2271066900859186, -0.1475981846545443, -0.051139728648680244, -0.08428390094208729, 0.05006902147537028, 0.1365921311550296, -0.07891702415569472, -0.03891666918713157, -0.06739477008010783, -0.10720036874744739, 0.06427320599321097, 0.06535764444312618, -0.02113390197202727, -0.4902688748923129, -0.4242694793884978, 0.023855564795800376, 0.20443105860445185, 0.20850276035128, 0.16852628116211396, 0.3179305418148421, 0.3238140230543876, 0.12925809035168856, 0.033033859810338954, 0.022232737870423753, 0.256472627711185, 0.011178184706329536, -0.10698585517523376, -0.3348689460279168, -0.3710494087556557, -0.18247870714216644, -0.297864773316389, -0.1577117455407542, -0.09360916765911181, -0.0945677632004167, 0.12444716633869048, 0.16279039023031072, 0.026809545677291276, 0.014601060181510922, 0.07267280875358147, 0.07421287825715651, 0.13811842573527355, 0.1818260135608943, 0.10720670711194558, -0.5009175156045061, -0.33051230829600187, -0.08505519010144641, 0.08919226295044583, 0.059759007265260004, 0.09404189147209327, 0.3155750101423626, 0.21981245466955632, 0.06875867749097173, 0.13814679652903553, 0.15812738583719504, 0.2884356456602954, 0.08763041322581215, -0.05756277139901027, -0.3237999724984214, -0.4338972516536542, -0.2750075315163222, -0.3303772773037178, -0.19837472488291746, -0.08188412002841346, -0.0832579968973789, 0.10349017930084935, 0.1722639184417304, 0.029141506902114624, 0.11746555974753602, 0.12833079539673, 0.06404842241330601, 0.19039583815295882, 0.12131438401680664, 0.1051690787849617, -0.57195255444107, -0.3836548749645964, -0.11654960590325615, 0.15644580105488737, 0.17453209503535413, 0.17350559834930548, 0.28503392069138106, 0.15966446021136238, -0.08820760671114078, 0.08854054937761761, 0.03724164212408108, 0.292228757201189, 0.14082985231031003, -0.05104482383692307, -0.29757014436803925, -0.32765256479975063, -0.13917123398217354, -0.23285392045025943, -0.12127479472032057, -0.15579143084127783, -0.06590870275593305, 0.12939763054761222, 0.11276436593997256, -0.04925323471425624, -0.0033431306992844946, -0.045019445297244484, -0.07041268289447113, 0.08927176182395405, 0.05748615381000877, 0.0044337000135205515, -0.5669691426390513, -0.1602643542241337, 0.12621029429326122, 0.3205935712302191, 0.27281471589093614, 0.05360759582674037, 0.30160871319685173, 0.2274233531504453, 0.044505695988988375, 0.1908517082645365, 0.27894788439323803, 0.4171928242394435, 0.17483366747566143, 0.0042746009759732214, -0.19830161150176415, -0.19693655821990594, -0.1351718091156179, -0.3039102126058064, -0.2104583436423957, -0.08213282145446109, -0.0090932600963457, 0.1545972480689016, 0.1467498013159697, -0.08245965246541466, -0.07248917190198634, -0.07812844780833605, -0.13050965506865722, 0.0796790099978989, 0.042543654958448286, -0.01607070552683297, -0.44129825210552925, -0.3544121988929366, 0.049611970981253486, 0.20424392102628985, 0.15654626497017146, 0.04516674810225624, 0.35062923468524054, 0.3513983162915969, 0.05509250758793064, 0.16227024301547546, 0.03631927913312445, 0.2224584970364815, 0.09981702124585995, -0.00879916615437079, -0.1901682057975532, -0.2054938771032314, -0.03284124427457569, -0.19870392893893232, -0.15726770368279405, -0.10062099207033164, -0.06930383618366458, 0.13833567752387263, 0.14858627274878028, -0.03675009228849115, -0.005205140670792146, -0.020392395076467097, -0.1433527801853982, -0.07526204114767446, 0.005414683255651282, -0.06529882051365493, -0.4665176806044641, -0.2798242718627612, 0.0005445177317231593, 0.12925339255212714, 0.11611899233054905, 0.055732514985737454, 0.21829911576881927, 0.15269028817947378, -0.03207491102262318, 0.08467619678812982, 0.19782745627926943, 0.3311385220791526, 0.2305647864284698, 0.04649753834119727, -0.24177415046257297, -0.27218720331327173, -0.11638335779825465, -0.14197380660274003, -0.14744702629099873, -0.05500459386799743, 0.0024605079519741738, 0.06137363597672838, 0.06877905490511217, -0.05711548292220975, 0.042816055316348564, 0.03931163681696988, -0.1473175152305781, 0.07901140009739285, 0.1290068768307705, 0.045365033736819424, -0.45269583081617587, -0.22249959827607504, 0.04141058419489175, 0.20798102479653047, 0.09555540021229175, -0.06731347379990875, 0.21223992316655094, 0.20259358924904067, 0.08996725948509929, 0.2354546505236726, 0.13592797419739722, 0.3318336723586701, 0.18704646856307774, 0.07065860624212454, -0.23335121287332936, -0.34010296292639763, -0.1514214054265795, -0.1482195707477494, -0.1693447856034466, -0.2385976866123327, -0.24550026937464503, 0.0051273912437453375, 0.0476750089576547, -0.1301795093826474, -0.10558201103461597, -0.048412361723903875, -0.11421258733834991, 0.03962727885540293, 0.039544892660930704, -0.09623099369273201, -0.6732721615222484, -0.4978988645791703, -0.09094328412334088, 0.10600026209518361, 0.17070378718174517, 0.05775050270792671, 0.15214705605616996, 0.17504242323414262, 0.02456835720703129, 0.12324481135026995, 0.1137207358854114, 0.2967088060641654, 0.22193212294882084, 0.045222086405899274, -0.2701911108587, -0.37189981646870046, -0.16282830979654114, -0.20429910393908463, -0.19675676934414707, -0.0668803092776525, -0.09412069754390297, 0.0683847314775707, 0.09759032093742927, 0.011847740235964611, 0.0116674907057452, -0.06866477896904015, -0.14489833545065284, 0.06988551253262373, 0.11177322200538277, -0.030813476398225917, -0.5563729846564097, -0.3917158734011356, 0.07381726356587029, 0.19503774135103566, 0.08340222344729376, 0.02971495675748685, 0.20611301366963095, 0.1992431801105978, 0.2626432106593354, 0.31738958776867143, 0.20956994146849225, 0.35610512009768536, 0.30072145839357234, -0.034275002997015386, -0.281058125336563, -0.32051089779620767, -0.18155449100918328, -0.2481162346427251, -0.23438782840033484, -0.12961039029523408, -0.09985978518575518, 0.08647944355940244, 0.06939499611659788, -0.15964721793873232, -0.11389309865046018, -0.0311342454529061, -0.1693130241588354, -0.04343179692078171, -0.02358050332106614, -0.061391574878610945, -0.3724584857491316, -0.24010258313764543, 0.10451268314373732, 0.18265070353313123, 0.10060984525442648, 0.06839317532717401, 0.12966665196668162, 0.12030876904036458, 0.0019193374600147924, 0.11661553812524537, 0.09693239731495398, 0.2581325959298159, 0.26539523986768393, -0.0037199401368582237, -0.2194588479979368, -0.21830290890755533, -0.04283023700305177, -0.17560947621310338, -0.15247257194202699, -0.04212900130992859, -0.045965346135912626, 0.06530752437314379, 0.17423129840245782, -0.03441276741964191, 0.029065372530422982, 0.09423235483986456, -0.09227515989538226, 0.022312799514967792, 0.02237940638835105, -0.03644034915206666, -0.3300673413561114, -0.35875051156146626, -0.0272371522960783, 0.04285742554662907, -0.07316481881490045, -0.060912334030771016, 0.19993308887279113, 0.1277487223901531, 0.06463569206300768, 0.006531376077111395, -0.03706484523075191, 0.12090293638448452, -0.04189508451914751, -0.13825689225429294, -0.26321768155659536, -0.32390661652075864, -0.1658047951024646, -0.32532655026778895, -0.184444211437729, -0.12241294392458324, -0.18223301812114415, -0.03996592386615579, 0.08729276731054306, -0.07695800030224377, -0.056521015718401374, -0.10816650778616171, -0.1676856037897206, 0.0076008415770122085, -0.029968551253696945, -0.09885241553075143], [-0.45639797791659276, 0.3901758058408928, 0.19048708849625753, 0.28254022772627835, 0.2562424348556255, 0.4072119468826159, 0.17065296029217683, 0.3681584923845974, 0.5983505677400565, 0.019663012521648073, -0.6377024150253258, -0.9615011645506921, -0.3682073356197542, 0.6327100762235192, 0.6548095167675504, -0.14953272915603769, -0.7474282994894978, -0.23350832359337856, 0.09702454098347918, 0.5743325335933902, 0.475298953392823, 0.054055351018288726, 0.11360768512165721, -0.1852258305297255, -0.40140607342711876, -0.21262123655713555, -0.16932975524696442, -0.21647888191142434, -0.4686466173753652, -0.5195464189096713, -0.48513108081899925, 0.09754269121321561, 0.08943070264785373, 0.3618173335263217, 0.2695123571918912, 0.20867453298029315, -0.16822303867127264, 0.09413048586721846, 0.4667119669888916, 0.032101679832157295, -0.6348546169278235, -0.8980105133101227, -0.4914442016915994, 0.4303774913442048, 0.06854561150186009, -0.8195835078505742, -1.193802877963365, -0.2860128804621899, 0.3685273522682434, 0.635719723059028, 0.3618221238786436, 0.05318875128101747, 0.2743250100509002, -0.09247183295802536, -0.2454991148071761, 0.0049046205558261734, 0.13798635598343914, 0.05016584582232961, -0.24954476606583562, -0.24275296853804126, -0.1506575557367866, 0.25650482269972513, 0.2259136963436384, 0.265007638735444, -0.08710149566015946, 0.02016220739823108, -0.19912223205912663, 0.31013859132417393, 0.503737261117058, 0.22764717375647128, -0.6583025063619105, -0.8224903174391917, -0.2708299556197504, 0.4976920298581758, 0.6694326359636115, -0.3664273547278648, -1.0321451298438007, -0.31051102709557266, 0.3661850302307224, 0.6839322890172345, 0.3947008910250492, 0.11751755745777669, 0.1306480986275588, -0.18432072008282419, -0.3278772820100711, 0.02558120265504352, 0.19431237828638623, 0.09624400458514265, -0.015448192591438698, -0.27867689114300276, -0.4127468140837432, -0.08425721428079389, -0.12959923555541628, 0.13960542947469032, -0.03731145327774169, 0.024926661746038296, -0.15862637225396406, 0.3276920527820184, 0.4447017539063465, 0.13495938016100725, -0.6173557873073702, -0.8955590727604095, -0.5768144443391862, 0.27638067684784, 0.357484739842803, -0.479452974544301, -0.9713064290803274, -0.5189895911160012, 0.04607348177557833, 0.5206962850542711, 0.36852792596768397, 0.09077242857526892, 0.12587874277314062, -0.08967992658901876, -0.14563553859037268, 0.12768331353060233, 0.3621841803648331, 0.026076158901097442, -0.09361929215930695, -0.1785332488725945, -0.41761465947326376, -0.1676247815360434, -0.09338758252171987, 0.49422493943059154, 0.22890932414148354, -0.09328268934970167, -0.29361912394295214, 0.2034108626807436, 0.4620372457724264, 0.21253158329642965, -0.3731650726616925, -0.5451832385295596, -0.33408905406891964, 0.5498077145539857, 0.6498280054844131, -0.21758447293114305, -0.7879263280080766, -0.0712125597266403, 0.3808275094923084, 0.6282426586753939, 0.34999040702910916, 0.029445399369455713, 0.16944460710403123, -0.21887065282031667, -0.21275066631482398, 0.06944615605484794, 0.19820870768169177, 0.0014571302070824797, -0.19177790136571188, -0.21459633941158604, -0.4987144243497122, 0.024833395097439558, 0.056356064075352326, 0.1506665656927722, -0.08321591085116331, -0.12201118192310627, -0.16920516296200097, 0.2330717077374171, 0.5024772175559232, 0.20821134861974866, -0.36835439435160744, -0.9557718255880111, -0.5722974591350647, 0.4444676506299206, 0.6202289319182653, -0.25643148809468663, -0.9047422546096756, -0.3752850534262377, 0.29927047686339975, 0.6285632417382079, 0.23095399061236582, -0.017441706954577647, 0.06002721043288529, -0.11809859325571323, -0.018019070976501697, 0.08568098503241361, 0.26909708275793737, 0.1313124666482197, -0.12010590547437616, -0.12464973906880554, 0.09476748236495378, 0.12469288883727173, -0.037888570178727037, 0.30046507704423037, 0.08936390362938142, 0.01388715505625017, -0.2803636709223266, 0.07633843819731455, 0.3359705027400809, -0.0458271511868174, -0.6344014965665213, -0.7178151465577551, -0.4791625999050598, 0.5160883001993943, 0.49010825820116616, -0.5572778248652871, -1.0214330935129057, -0.2751712447725293, 0.40547779341862367, 0.6979083058218345, 0.2672479562631064, 0.10364047897317297, 0.14536827135008945, -0.14713779219701634, -0.011888985999146902, 0.16889146310358322, 0.28953029714704936, 0.25756925283457843, -0.1627537312138168, -0.03377256871072326, -0.2490527816113474, 0.22536308534994973, 0.101555697489684, 0.3934595491211818, 0.4458594562742849, 0.0702071138488598, -0.3034792548187794, 0.12231869653488166, 0.5276340175519876, 0.4657574516800485, -0.15122737069834022, -0.2785685977691068, -0.24871621868865904, 0.7358546842069237, 0.6298651456614545, -0.35296612885386397, -0.898755318654061, -0.23130797466100372, 0.37119293714260243, 0.5314251688591631, 0.3570084747127488, 0.15945443360287193, 0.15689030149458322, -0.030273218722233337, -0.13779701576913495, 0.1108997108043104, 0.24070413431885793, 0.02608923669748663, -0.06525821431215935, -0.06570101620754816, 0.0926412413061774, 0.15931719312633472, 0.15035566714963988, 0.5426083610783594, 0.05093345095603013, -0.18118147370437115, -0.28285045896111954, 0.3046921947516259, 0.5053278630107461, 0.35314983458674337, -0.3727422895724156, -0.5995453690732765, -0.36477327506432783, 0.3909278063785791, 0.5930721428226776, -0.5142462657231717, -1.0133100491809528, -0.30603527091286004, 0.1763168084447323, 0.6715165926795714, 0.36405535935245614, 0.20953654930814689, 0.25521388154639996, -0.07272201681383016, -0.20958115413934159, 0.0214294061621665, 0.3049872775632866, 0.1832308159618256, -0.18063393235966363, -0.18024783644664116, -0.10699389622729955, 0.16438523517547712, 0.10080185690649215, 0.47728060982027, 0.1977641306856365, -0.03549567874941156, -0.08305312292669433, 0.5850929154034666, 0.7076502610108477, 0.2336436371410605, -0.6070861733497716, -0.7939647005929694, -0.06263068472028673, 0.5710114380166833, 0.5119607867457042, -0.21883445418875694, -0.8696565243606846, -0.10404707510202946, 0.5532756574128185, 0.7084927172288794, 0.4092165377938148, 0.12425994777990607, 0.0601713703845831, -0.3368276443228793, -0.19567482252918894, -0.13865582137745167, 0.038681128597946125, -0.2192305166188483, -0.41141343391167096, -0.4149009878626578, -0.403118013013739, -0.046444798418973476, -0.044134271848728576, 0.28810871376271346, 0.19049659869787797, -0.038639230124325775, -0.21501466015666482, 0.046678116777651824, 0.5943070670713684, 0.3489268828122504, -0.6807736601547689, -0.5842448944277228, -0.23861513194967235, 0.4166883414104397, 0.5385284986809841, -0.341689756424472, -0.9333440134883619, -0.36285042103061693, 0.3099940044436728, 0.7311684369253411, 0.45506710267544825, 0.17801174264502814, 0.14399245713034298, -0.19407970546516234, -0.07141107650558202, 0.04097736839645034, 0.1427383352732864, -0.16629841209685634, -0.4155247826104837, -0.4980592009912662, 0.005202429997077321, -0.15392856450466766, -0.0795175801346544, 0.48082977711301994, 0.2855690019500105, 0.20197484189154288, 0.020054599286499195, 0.6283257203491349, 0.6891838425520618, 0.4330022895795923, -0.5208023312087033, -0.7286385081709368, -0.30015000532163266, 0.5695442591047642, 0.5146206034664742, -0.3241317339956075, -0.9617303678836681, -0.28369133226276466, 0.09438720317668299, 0.40631415383176706, 0.2020058717482234, 0.11414650319028567, -0.04316276715312155, -0.3999094032666527, -0.17307895607135315, -0.07042770202749725, -0.037949338759945474, -0.016235843347791584, -0.275774999761315, -0.49026082609744615, -0.40790995717949724, -0.2721884179072349, -0.3434466570727246, 0.519623628367365, 0.16662520078608453, 0.11144157539156402, -0.2852747173722981, 0.3213762866295463, 0.2949578195548645, 0.16830408575191094, -0.6537298599112606, -0.9119214753845134, -0.4100617393991378, 0.35316367476687655, 0.4610020345256015, -0.5268670057544106, -0.9507311878408125, -0.36501474931117367, 0.22370693023611998, 0.6050261067613568, 0.29789449654078587, 0.04844143288006033, 0.05194956142811132, -0.15269664190917598, -0.09834636096054127, 0.11603849338226413, 0.16137628931088888, 0.17191584388937795, 0.047252053914393945, -0.05823260494754571, -0.43203036116571797, 0.056028426617714476, -0.1172913284895969, 0.5814926867989401, 0.003361232965911188, 0.08426395798371539, 0.5005243404262363, 0.7429747813143934, 0.5140655003669642, 0.07071639512496891, -0.7247172692595927, -0.5710730855795902, -0.2776696666569185, 0.3884068948233686, 0.4260483685670902, -0.24247661303307957, -0.7583181184388335, 0.0023445186453191027, 0.4186236931068781, 0.6907648704195145, 0.4483086817705841, -0.1739497996877918, -0.06191634120527492, -0.08395408303297362, -0.18817871694378832, -0.07614024635634987, 0.128252151777645, -0.06075576070595159, -0.17386919765455894, -0.29395805995624935, -0.1776291999125609, 0.04578554378018417, 0.02373517171022563, 0.47964413404174105, -0.002804920254798635, -0.1396555775495479, -0.1792289955555049, 0.20822092147276305, 0.5132980513395398, 0.34628664845623963, -0.3496728845478395, -0.6078126636498706, -0.3268422274996004, 0.4282856566799191, 0.30212630423366155, -0.3924304169703381, -0.974557370159077, -0.2940402699982628, 0.11304394305783792, 0.5615481532451082, 0.35129144339406604, -0.07474922258641276, 0.11260421270691057, -0.06897924444437738, -0.2980639077019802, -0.05029302522855207, 0.1736976810128658, 0.21535113425543734, -0.04900402928611183, -0.3159734272108536, -0.3501588814442122, -0.16546251122377634, -0.2962600038248155, -0.06884248802877613, -0.19101424428038172, -0.20366300110142516, -0.1134234717793201, 0.07010255858878622, 0.42576664865715647, -0.043198183317121254, -0.3595386945934077, -0.3775060709248186, -0.2548455965172151, 0.40779143356048864, 0.6022148378149015, -0.27883039450456765, -0.8306549168618369, -0.2847547584960832, 0.06453167562917846, 0.5714804042192768, 0.3719678785933583, 0.20620157919983792, 0.248044013378261, 0.036706643228609066, -0.1825099102443182, -0.10807212325039522, 0.06168703075745891, -0.026455920778648074, -0.33343716891465314, -0.5380986536782661, -0.28046860021054626, 0.07237501864162435, 0.10226151752487458, 0.6430955756685699, 0.039683399358471136, -0.020488036496204724, -0.09364681325038642, 0.056305945748359516, 0.5513844909983232, 0.17568337130481873, -0.37112907757371194, -0.3357554105842565, -0.2789128762111884, 0.39708752493969457, 0.6368584693187237, -0.02341728730799089, -0.6590349595351073, -0.16841426582930957, 0.37488219072895307, 0.6406257017889092, 0.17386897670119844, -0.06908762872742069, 0.006914653848685684, 0.00032165700379785194, -0.0477997523101511, 0.04167719633680218, 0.23270266920145444, 0.13027325392421074, -0.07713012558590986, -0.1064063972525253, -0.44012285033378235, 0.1987859557549734, -0.029434159647217364, 0.3947390562740379, -0.04871160683099455, -0.19878773940043576, -0.20811091996682857, -0.08748768025485204, 0.5690951269617742, 0.19271981448564754, -0.5463744160228142, -0.729037506738477, -0.36692087180462934, 0.44839002410075546, 0.45782557651117184, -0.35927013453101536, -0.9587654972608808, -0.3021514855704808, 0.19221924605639515, 0.6321025992030281, 0.39507762013396, 0.032662105539248726, -0.08618922186545376, -0.23108947836434046, -0.33445521719356053, -0.06638671072297674, 0.2539780556420517, 0.18979364495989454, -0.20362873934613787, -0.28369664572983805, -0.16767121995231654, 0.1875471166371977, -0.330753801649532, 0.2936195139477967, -0.0626282984373649, -0.028102802720321812, -0.1864559242610485, 0.14912306629507605, 0.6912162219099148, 0.2597055568455628, -0.44865064851003567, -0.6722594620211646, -0.005921849807994228, 0.7537848429339649, 0.35824928682823104, -0.4513985846038979, -0.9224609412000779, -0.20958977718084387, 0.24342784139840323, 0.4733895119346556, 0.2418336517964809, 0.019536167071672147, -0.08257864894160699, -0.31391591578747485, -0.3864408485874473, -0.169193118758912, 0.0457873579898123, -0.12603653326566844, -0.23364931631778454, -0.4272142854530244, -0.24821447849963474, 0.3092325109727381, 0.10236209643069129, 0.46019183069923925, 0.5137683127621743, 0.5025334970310162, 0.2515129367749118, 0.5701904817284104, 0.628049197408451, 0.12499335937808927, -0.48237564364672686, -0.5032302467319713, -0.17799079675086624, 0.4921662527945526, 0.4712141972316873, -0.3674286714592735, -0.8941418208524841, -0.23957565975666853, 0.3031238087634614, 0.6471195880034392, 0.45730166828979757, 0.19007209706367267, 0.2820649223555962, -0.16958722299699006, -0.12545192684263815, 0.24168709409520722, 0.37505464325235616, 0.15961121556153204, -0.01850266252774505, -0.25419850806565514, -0.10486300255751085, 0.3728253362520711, -0.08868253115683306, 0.5332691049702993, 0.05827733265406375, 0.018137237344134065, -0.2393433287947777, 0.15853327929093064, 0.6371328103824072, 0.18474751902504766, -0.6831896697535152, -0.7274963056058191, -0.39737607369153305, 0.48903909821481706, 0.46846109367574457, -0.42630931619340207, -1.0711964176533806, -0.3616170615023647, 0.06153674304167833, 0.3488691035723872, 0.22328216686996658, 0.0034687840233011357, -0.03209307360763503, -0.19441999474905539, -0.2226847466289603, -0.06937420160083951, 0.1811940809584636, 0.11964047365109036, -0.03300195937701672, -0.2704434392754411, -0.359760144785492, -0.1944006535046924, 0.1467934160815261, 0.23742970994958643, 0.055692715785550045, 0.1708211388925877, -0.3335202650469342, -0.10068255208578103, 0.4318151753396685, 0.11253484099734784, -0.6125881057279187, -0.8034464937483283, -0.5158409468016855, 0.4300737330692949, 0.47005784636787296, -0.36130561362836044, -1.071670486500537, -0.4443609395481659, -0.04359814547087947, 0.31246252199527985, 0.2539806827067578, 0.06738207891705313, 0.08102964653746636, -0.09518129859591974, 0.10121538900405025, 0.26405564451929153, 0.29744296256556346, 0.22768073481397197, 0.09115854254283492, -0.11529003136834265], [0.43235087728291555, 0.06496072914063936, -0.4918796215317205, -0.35833624709223966, 0.507408950501195, 0.6141494461194877, 0.037722762594201105, 0.14634979941221804, 0.18348424334065505, -0.43590729844613796, -0.7507772606313838, -0.2699189814017613, 0.7998246701502935, 1.1618721555113705, 0.8172452911488682, 0.34948678436104147, -0.01455233008479559, -0.01137268293908067, 0.07918737250879054, 0.24029473160947862, -0.20833799620397103, -0.27703645265164667, -0.23044506596800815, -0.21917116047986282, -0.11447087851380534, -0.0635892793666741, -0.07349646378993992, -0.08570925244828355, 0.05438413513121946, 0.527353589531462, 0.5907437738317022, -0.1712565296884619, -0.5776885237146439, -0.42448957718890795, 0.47142006325320074, 0.37342226423129254, -0.31456290518262603, 0.03030413898788192, 0.3609839937482407, -0.12150963889215137, -0.8355894236745397, -0.7911710685384893, 0.6750689015754306, 1.1100176031963662, 0.3494366942996795, -0.12471836626032652, -0.450930423648912, -0.3245511466105748, -0.1148807501293278, 0.12654196755080804, -0.23315292008043687, -0.22962334271246826, -0.05529406029170151, -0.23148652527967023, -0.21685998178703958, 0.10914327721590936, 0.08822062318241607, 0.03581645881892012, -0.0591201510170253, 0.2526351575960001, 0.6624297030176511, -0.018602326017086637, -0.677076794032544, -0.8761747895887729, 0.2590845064888795, 0.0772325878615505, -0.5313160767754935, 0.09462037147480244, 0.21782509733629574, -0.0928904334684631, -0.7719060681650233, -0.44178108461611626, 0.8772283581279823, 1.222846389405644, 0.5435290121714386, 0.09961912651451524, -0.28590202076992904, -0.3336213621547857, -0.10962948062877943, 0.11616429359285678, -0.05135620663334582, -0.026537256662638477, -0.09182758185676103, -0.31271019517135085, -0.2787802941047831, -0.06614504640490942, 0.17247304599415733, 0.2196428304506074, 0.28232722322732895, 0.3825801526261923, 0.6738667052970533, -0.10857771801700392, -0.6229341010115391, -0.5763021774222937, 0.002472502413983984, -0.14018169082357362, -0.49519427099513347, 0.14814501345575914, 0.1565285132911943, -0.24889636957792108, -0.45946701595571804, -0.30178118187903313, 0.6914852648158054, 1.00854174577858, 0.4437526378557033, 0.1360760691859128, -0.13107119734865186, -0.2721439369378642, -0.02714338784935888, 0.2960850367765109, -0.1489085316475832, -0.49349224899962213, -0.3696125328187392, -0.42494265891928407, -0.4030168807362071, -0.0829361997281933, 0.0539181610382915, -0.07324932075482739, 0.1819250160643691, 0.39342477078273375, 0.6243982838963211, 0.0314993567266871, -0.4999518555001769, -0.671432622005835, 0.2722502860555798, 0.1415199162883577, -0.20484958590808697, 0.2327894293400138, 0.2526173088263172, -0.32305669083458816, -0.7111837966253829, -0.30394987271801344, 0.8260362949022179, 1.1556034286924317, 0.5190912840792586, 0.10278587031628322, -0.26117027921096597, -0.4218789457442671, -0.16816290816318943, 0.15800275088082857, -0.18052884087764437, -0.2926890106616621, -0.34091327485641887, -0.4879512017352926, -0.5916984060231977, -0.30742002866042795, -0.09866092155852325, -0.052907688326265356, -0.04756632681328469, 0.27256404702613163, 0.0518064212566361, -0.12235347427064681, -0.494438655828915, -0.7796232028236098, 0.11569117526683032, 0.0093101064845782, -0.2544852235574313, -0.1158860608840518, 0.3288977464668496, -0.045421816361029196, -0.3125872806960108, -0.2112404353106404, 0.8670896457905952, 1.2468518008442746, 0.7879227013430911, 0.4483054506953722, 0.13127529610794922, -0.3237999879372815, 0.008733253441145929, 0.24813954124762355, -0.16771513425787127, -0.2826081268407376, -0.07915195427095724, -0.46696127635496476, -0.3758111856007069, -0.15520934136101908, -0.025671859156984986, -0.06361632997506553, -0.016674504574275432, 0.43020078218817925, 0.5263094453868212, 0.03571368464172027, -0.6520113918653795, -0.6147548030858344, 0.004429764827136473, -0.0640157121829825, -0.25078276867172583, -0.06863198588323075, 0.14509197690476083, -0.04193943415028915, -0.4906383340283928, -0.3848405527016542, 0.7758804646641201, 1.1546384269515255, 0.6958219845208119, 0.19929946600586373, -0.2712386568747213, -0.41740326424523977, -0.209149970630695, 0.1207248141281806, -0.13177919429227508, -0.29412576237200344, -0.2110485590581607, -0.5133276831921304, -0.4469746767625105, -0.3182708957714133, -0.19476632020390464, -0.09923590176231417, -0.09005655792144514, 0.36249080353012675, 0.1547278668197662, -0.1281207578039361, -0.4938440957234787, -0.6881004578773865, 0.30331989172145846, 0.2615824472699732, -0.16656747202110925, -0.0016070707988508817, 0.3072317429363087, 0.09198232775500849, -0.2923532667294085, -0.1693360469721102, 0.7826712869910503, 1.325040961470055, 0.8872952037546072, 0.3713142610161228, -0.06769623695503604, -0.18079862020403337, -0.02131430545908924, 0.17198713425721182, -0.004522266639706417, -0.11619063692231239, -0.2714781793961506, -0.4421421545079521, -0.4619016319992738, -0.23480484446984573, -0.1480552114626207, -0.13812956221646205, 0.001400079980981825, 0.3615010570750052, 0.45969778825332436, -0.3368606144556904, -0.5100386092925991, -0.5035935008619463, 0.3476104565471347, 0.34563583086907845, 0.09074365785859412, 0.08912430586650713, 0.3724806142650325, 0.16259806942593372, -0.3529380144103354, -0.26220882986235894, 0.6321398551904791, 1.1985622400386824, 0.8886546209871073, 0.2424420097376538, -0.2844570145620286, -0.4205444004666543, -0.2842363217461705, 0.04588631340940256, -0.04480911772674024, 0.06508958053339721, -0.010919727359440105, -0.3328370327086531, -0.5428638023732615, -0.3871514009244193, -0.21329673348846717, -0.1657902517288992, -0.0279331937691521, 0.37983255019995155, 0.6869732610309487, -0.03516843522317627, -0.35616293197514154, -0.3169631115119917, 0.24197125313744813, 0.03998092678845657, -0.24414704805707027, 0.1903813431766415, 0.5279562745530759, 0.1158834023679135, -0.4127550125418201, -0.15247286685803932, 0.8587555147818554, 1.1506877746769473, 0.7990824578781287, 0.1287672589769051, -0.445176700768288, -0.36666626663028123, -0.0686430281696227, 0.04630546178155895, -0.18658940227492413, -0.1891179480701485, -0.4357046664709805, -0.7314645960319823, -0.7158309089969591, -0.45076433229293095, -0.41000143332656463, -0.25637332287472236, -0.1915859053098202, 0.06381992148765475, 0.559287616573135, 0.11960961064649286, -0.8793712977569277, -0.8361923543435996, 0.12859510113155437, -0.24730090363002796, -0.38478700631874335, 0.055283721725740205, 0.09807783960532848, -0.24190671950433745, -0.6906214987967495, -0.23594770988174582, 0.589119159439426, 1.2414930232511558, 0.6881509342595432, -0.05040934491826866, -0.33469197618321705, -0.5921579106543661, -0.2521014833906009, 0.09302849233890786, 0.05086731970443582, -0.12485362736020678, -0.18183313112239108, -0.31644034021788153, -0.37729550213026686, -0.20203124814397214, -0.1573105565357369, -0.20608281405164183, 0.01544436150932152, 0.3341408386829662, 0.49662709359332413, 0.14280079626266612, -0.4274071107435543, -0.3384689799149683, 0.4255397611229965, 0.22261462140641525, -0.0507050480117812, 0.076607067187331, 0.12875490039385123, -0.11018937283577648, -0.5913705367902248, -0.34817015479991753, 0.7722316652932405, 1.1474201301491775, 0.621236763229623, 0.02261531622448015, -0.17464307468515594, -0.23474559401553477, -0.2383637308984664, -0.049740017383604694, -0.1973301285592192, -0.1479920237912471, -0.13455645755743934, -0.34344640068829607, -0.30801719858752813, -0.20819171998998529, -0.09977830895038499, -0.055153154741649835, -0.01898039953288002, 0.2809283720628423, 0.43412058767240397, -0.15166224324505975, -0.5264864481812448, -0.25689108503995844, 0.281053601500469, 0.23612592969985716, -0.24282754817807384, 0.0722550371216547, 0.30170101076531836, -0.027023514137725878, -0.4795345383426936, -0.43949172952454824, 0.6634021036720886, 1.132239481637186, 0.7047788253870402, 0.18728243363939456, -0.035416027731360274, -0.09872761344806831, -0.1027361467916936, -0.028946016551682812, -0.4026268915266874, -0.3421870391094666, -0.1749927949732636, -0.33589621403450043, -0.2874232420819903, -0.01751653791774642, 0.03137756435397586, 0.012589917111178298, 0.05020139491051306, 0.3771266659515165, 0.2405733627922807, -0.0792241846482872, -0.7632449664478214, -0.555673054085853, -0.0002688980716834645, -0.15409650497339017, -0.24420641779288085, 0.312006526221147, 0.3954202927140204, -0.1798919564869646, -0.5877899102006909, -0.34143891803917925, 0.6443417561140838, 1.2962391714928758, 0.5951955554809699, 0.22197100762790387, -0.20400485408794056, -0.11576905570778959, -0.07560162241463318, 0.09846353628634197, -0.373059067893421, -0.42014755134900855, -0.1838765705661982, -0.41900241802910176, -0.1447797450352911, 0.054067116459508326, 0.16023712737642795, -0.037941239287212644, 0.08905234289254509, 0.40051437430528947, 0.4741970972103482, -0.02056974781945853, -0.7728895892625173, -0.5789007746822716, -0.02533771881271303, 0.015053854753235075, -0.16967031061059926, 0.21782538178538052, 0.34718577795283956, 0.05744802311892141, -0.6621086142503597, -0.4093134857587356, 0.5568817680348866, 1.1963883771862402, 0.5364191454017935, -0.02525713383697237, -0.3382144582157302, -0.32082730355402156, -0.16762708502970167, 0.17316509779949604, -0.24895130578526253, -0.30051880471071984, -0.27882358813039493, -0.38586851313525455, -0.4201077567703226, -0.22656363114195072, -0.12007174964372223, -0.07062654515398449, 0.12493639327275494, 0.3600577484487849, 0.697667266171028, 0.16058255248135025, -0.7396023563823944, -0.5539514994291618, 0.2994144927905016, -0.0011912218575962055, -0.2661921983869683, 0.04740289468901334, 0.5375349979172753, 0.054190088448481985, -0.2768161714471111, -0.07288046474257105, 0.7883067109797329, 1.112241057131361, 0.6816079154074752, 0.27426819903815386, -0.26008573208429514, -0.29367904251837723, -0.08617836874687365, 0.18671120509722114, -0.07925762091303865, -0.22112976934415263, -0.21889926464821519, -0.2738098533188551, -0.32609129023446565, -0.10497699631210906, 0.1502835205262625, 0.1442783232875447, 0.20162798587169417, 0.39673103496467216, 0.5964457799505761, -0.11259033810860986, -0.5098380515563935, -0.27358374349767123, 0.1907928151800526, -0.030615717348160248, -0.120859904628857, 0.14678941297513287, 0.5484788466350585, -0.036781500459157575, -0.4288481707470074, -0.08159354729504364, 0.754009577557893, 1.156924601691405, 0.6662945273656145, 0.26207742000528916, -0.2808944833606814, -0.4638073508005897, -0.12715670743709748, -0.08510198606648152, -0.3526763460148775, -0.46340264932381614, -0.3691569359160694, -0.3617570536054858, -0.5237976669986483, -0.2169751937743441, -0.19318882023790052, -0.30168800394286027, -0.16803907049036126, 0.06839854132013135, 0.4952321535146752, -0.11682513603848026, -0.6659074371063319, -0.5037486353023908, 0.27492548460438027, 0.32932526089687897, -0.308769714925574, -0.06978961634679322, 0.2428299320198638, -0.14917021806408468, -0.5796402070060925, -0.35684594057449776, 0.746182990304718, 1.0016364271602332, 0.515110393643417, 0.1879301796538975, -0.19784445397157216, -0.42558002088612734, -0.2411598349917457, 0.3079595625483392, 0.005926207538601408, -0.24664769508423376, -0.4357697216291157, -0.6369097554838119, -0.6155901169823544, -0.32815295988636173, -0.10320886894856036, -0.2632088191877874, -0.13776370941709334, 0.11685193482300113, 0.7180120899474096, 0.12034528167670386, -0.8509647368040255, -0.6644628771410372, -0.10595373541940313, -0.16443956447272146, -0.2591670871378713, 0.17124980703673467, 0.36859529196442237, -0.05923414264165162, -0.6667599228260159, -0.46413533957731967, 0.5605081789433549, 1.1555951436731946, 0.5318622927964969, 0.0766513521337642, -0.25006938501728504, -0.35322608821217577, -0.180402945436795, 0.12968837718588894, -0.07685967836595632, -0.12067772612554105, -0.05483469013890335, -0.43718423545564256, -0.3935435728291752, -0.11180686441306198, -0.05446095001010671, -0.14291202843245507, -0.06190309930737225, 0.390018865816954, 0.31103770329995517, 0.1066808384041438, -0.6059252469258471, -0.5441252755715235, 0.24517477006455338, 0.09296120144418285, -0.2678338510125735, -0.038265395062029015, 0.1139633933927038, -0.28354475633113796, -0.5455798514017222, -0.18773867335762862, 0.5632903258551667, 1.2205244396414907, 0.8118691733076175, 0.4101196065523465, 0.023599899490148728, -0.061778634299516993, 0.08743622831638716, 0.05022931339564065, -0.32456617995872766, -0.22441082958913944, -0.16069733904488603, -0.41929270904769983, -0.25781608584863086, -0.12340474369894826, -0.0234919276711118, -0.11126140833013098, -0.08631421753872029, 0.16498949645004576, 0.5278321976077893, 0.0018125451304758595, -0.6765390083886876, -0.3181727120596278, 0.45118865887287307, 0.3194445158617073, 0.06292449283743794, 0.21325175047278294, 0.42693085420791477, -0.2475563684504127, -0.7670669216516228, -0.38225592921002555, 0.43896893121517344, 1.194232295681004, 0.6829254411392236, 0.12484889036780543, -0.37685987513215463, -0.415069593683588, 0.030684685856165808, 0.2371990875721395, -0.04727524560659197, -0.020106787114819787, 0.03451714273889283, -0.18858923489796622, -0.29235237993804836, -0.018635754847590228, 0.14042431187359872, 0.22045115646986568, 0.3325757994070457, 0.39309191714871117, 0.1662245020233165, -0.3801334579173014, -0.5334499284082633, -0.1673069130241993, 0.3244203515878264, 0.07468484953252581, -0.4656431712485954, -0.04873201763786815, -0.15297012999429363, -0.43656629373125433, -0.6859857427056913, -0.21152717247366792, 0.6733934418753377, 1.1027117171313976, 0.5754341648062797, 0.22715810928220886, -0.17941273414929745, -0.157720613376152, -0.06871001395874057, 0.26319837618319, -0.20353073575007666, -0.18517694062881904, -0.27887347133633844, -0.4375975097457409, -0.3205455788781784, -0.08602053202338027, -0.06222638526728789, -0.04272001712322424, 0.15713412727133155, 0.33977262096746397], [-0.1271380459607422, 0.2259806497600402, 0.17737686229960384, -0.13667638480563465, -0.0012951688251043687, -0.2847407132026819, -0.4798338436882136, -0.2665704747133197, -0.31316465684240774, -0.4169072918573095, -0.05018716524497408, -0.1243480454072013, -0.38653661011605633, 0.27211935313917546, 0.8474511764695372, 0.5946935669737073, 0.06664735802459816, -0.24400433549911296, -0.38462822243391553, -0.13489269401634282, 0.08288697379072946, 0.0977463677277209, -0.21092889303868143, -0.10641797045918329, 0.02402433165471969, -0.15300203823742936, -0.1774079042743744, -0.17279912125919417, -0.3644933795524337, -0.5037134272488318, -0.3071508733987068, 0.22616425213206537, 0.13626229724254085, -0.0007500424591704741, 0.04482685055229559, -0.16793021855144852, -0.1558581419821512, 0.022663361142255523, -0.13756304415871567, -0.19549300722358018, 0.0972089039716328, 0.020012293634330724, -0.27659176467734503, 0.3644136207881636, 0.8929498023685087, 0.8985229626902225, 0.3714512374966818, 0.11535326713842656, 0.17712730564925844, 0.2871033063893461, 0.3824823921645351, 0.31780482191321063, -0.11310221884670578, -0.05777963124595955, 0.1657976488217642, 0.09470804046016192, -0.04228600858978055, -0.1785651141169773, -0.41411501912958654, -0.35660911651772353, -0.43377502499505527, 0.28398528960439773, 0.17474224471738167, 0.21283159014841396, 0.12124201379194169, -0.20454950863355306, -0.2616347428364247, -0.10671909147986679, -0.26166318376618986, -0.3508896690628618, -0.1843751858568743, -0.24407407132401032, -0.4081689855485106, 0.16866844998209624, 0.47646116504232033, 0.4473326973921168, 0.04322370319391216, -0.0549654505725736, -0.07875059793080856, 0.035703394317212325, 0.05754469124567878, 0.17561653427512394, -0.17294726298017318, -0.011182222764374564, 0.09642502567761006, -0.003933394035095636, -0.09450092792911803, -0.22616768065118012, -0.4528546970982724, -0.5316307541186968, -0.12790063163953125, 0.24455143675458912, 0.28057408291779007, 0.13221900403569217, 0.1886192328277278, -0.3598623231178845, -0.2572743482921587, -0.033560719877277045, -0.10409585335114868, -0.11911566250087358, 0.029006466043019326, -0.13419999486713444, -0.39448579160982944, 0.26939771170573723, 0.745378194439704, 0.7126760481727513, 0.288996798334822, 0.022467730832877564, -0.15106958337682438, -0.07285165867018818, 0.21403632844332718, 0.11501365962020396, -0.03055468077732113, 0.09676358402680296, 0.2267810342569925, 0.19363728341516648, 0.07021396570363905, -0.15861840496276464, -0.3953873186519526, -0.5088716424652515, -0.3517728335727495, 0.3767780169893584, 0.044074270553802586, 0.07573105800010274, 0.0027064385674327, -0.14708245981391121, -0.09788595500839417, 0.14283123907698989, -0.04713680113992628, -0.20350422746780072, 0.057770165308689496, 0.02011582472576747, -0.22852325319352254, 0.2988926308773939, 0.9332199299701236, 0.93351182673678, 0.25584686009399243, 0.019313817434628053, -0.22054549453070874, -0.005781322339325982, 0.1616824038481828, 0.10901136792019978, -0.1197922313817443, 0.06760660207723958, 0.18656098939221455, 0.10801628734760257, -0.08979274234685956, -0.30130372241598863, -0.4585226110862632, -0.4751677467086984, -0.6888749520688955, 0.06136291296686953, 0.02364868966092723, -0.15316921563316416, 0.032765496400351694, -0.31828567541102804, -0.1355774844634949, -0.05005104653686967, -0.22694460911103628, -0.2853799856238848, -0.1230130549605239, -0.20858562951344967, -0.32028362338626754, 0.06282967928322579, 0.7042496214708938, 0.7711511285475883, 0.09221866792875243, -0.047055651495590094, -0.1836552358911084, -0.058077807494200856, 0.022558729784978894, 0.07517072169928553, -0.2055530171101307, -0.032077249869892556, 0.11850307298099237, -0.049571354019764896, -0.13292509876183103, -0.20942409636405845, -0.37723149252167354, -0.5156030370410477, -0.3045722324639894, 0.20297967633356667, 0.13646181336327676, 0.2003342651451385, 0.3640327677784563, -0.28653392522679577, -0.2665990493503537, -0.20753739142784142, -0.17603125005863737, -0.27444053789719497, -0.04916996175446446, -0.15367222831073662, -0.4032570601525915, 0.1639835633436346, 0.7250162777468178, 0.5678156956393822, 0.2683521060934157, -0.1351219455228366, -0.1834046550799134, -0.03438124233403288, 0.15054889768104512, 0.2013800647556504, -0.13481504825164467, 0.08593462533212391, 0.27713204828160126, 0.08678258892578332, -0.01941951994376482, -0.07728799184584997, -0.19350759222362152, -0.4534058171996616, -0.38105380757041946, 0.13859932930371463, -0.13014839195120745, -0.17235121352300717, 0.28396960797884374, 0.003383501378434321, -0.02986263295085021, -0.14317336326778204, -0.3852815771834948, -0.31246270542480525, -0.16091136986282556, -0.13089037834136308, -0.5846306858519654, -0.08578826998464202, 0.5333483525384702, 0.6490693357794459, 0.19016087157956774, -0.2539063493494924, -0.15905740081351877, 0.020415318122798197, 0.052445522315676285, 0.2167623642367373, -0.16406880217766462, -0.0791760243774092, -0.030942462208498105, -0.022704353867743894, -0.2373325693006993, -0.31412253525226524, -0.45062710112227367, -0.48116936973071084, -0.4079851822202368, 0.3117022554663716, 0.18689640283343145, -0.04756153472838896, 0.09994396956048372, -0.30079850297929783, -0.34839761766775007, -0.20541172565625532, -0.4399455599994214, -0.27331496954321444, -0.18766494851017537, -0.3108963377049231, -0.43860828583895234, -0.07344792242098823, 0.5920873068233403, 0.452775371799415, 0.16290537072608327, -0.039590136796370294, -0.015215618200779194, 0.029141216155715976, -0.06575585615623575, 0.2080992588103943, 0.09403758550693496, 0.09024118327632512, 0.17262809461535136, 0.058028655111309765, 0.0010039443422678869, -0.12641172110682494, -0.3120001357141853, -0.38668079641619924, -0.3110138117028775, 0.08987199865018144, 0.22024869689774743, 0.297057884076345, 0.23657295079477167, -0.10013991510049641, -0.23613318054883028, -0.1862071819321893, -0.23421457297488513, -0.30622877802785287, -0.0338526491970806, -0.14366840489185015, -0.25785817733724276, 0.1211780763081031, 0.6963181392951858, 0.6255536898735985, 0.13173271550128188, -0.24570896797589004, -0.15812512829446843, -0.04394795813719312, 0.1664807320650958, 0.386636223655505, -0.014452124771105206, 0.06090962576883723, 0.23724866030082373, 0.19072092790819692, -0.058528784698632964, -0.14235334502827585, -0.22367226613305366, -0.3848213026756263, -0.3292215439742915, 0.34246081920538324, 0.2922763601516598, 0.05827877532833648, 0.41420289726461074, -0.023292503451203497, -0.44542027699211884, 0.004220960657135009, -0.11128956770271412, -0.18900729732227023, -0.21613362945985282, -0.3986546032966971, -0.4626836779222633, 0.2191019056325604, 0.7573683606049333, 0.7003161641545934, -0.0012168336439976706, -0.2647648105870745, -0.34423728523006564, -0.1893758141504298, 0.04206625231100524, 0.11776859972660442, -0.31409999315151294, -0.08881694941423689, 0.05976606848203309, -0.06717087657298915, -0.3164680808494724, -0.3470946532464341, -0.552587798870809, -0.48266253589473185, -0.3631377288785441, 0.23083423778303905, 0.027856572077153943, 0.1952022582310001, 0.23657123421720794, -0.19228273797054232, -0.3243823020919382, -0.29481805254198085, -0.3672330920111643, -0.37303683471856747, -0.30216376999310635, -0.4409851181099648, -0.4862123832114369, 0.008076892471639941, 0.457327243698492, 0.48408626961457407, 0.027816425733984653, -0.17388697281525783, -0.2778104271651504, 0.10160709605478498, 0.19581873449909462, 0.11221687058481696, -0.10058707457571511, 0.051302062428071914, 0.2474727571381575, 0.053393745520876335, -0.058486336568092843, -0.04995457566466661, -0.22028019895100825, -0.4135177493095499, -0.43709486177459245, 0.21776489049716885, 0.16662402769471413, 0.22754227998267285, 0.28995946422840735, -0.2782318807456976, -0.2623531821616323, 0.011812129908882595, -0.04482324691459751, -0.17484153035522437, -0.19799868877146026, -0.035770531603949385, -0.20210648477508716, 0.22717523630125463, 0.76905223893494, 0.774154779971316, 0.39684363146623847, 0.06384757653019016, 0.07505131975394459, 0.22854735710328763, 0.30974602457736156, 0.3510161400874576, -0.10663221827448308, 0.08409590507446435, 0.2183080853251258, 0.07225353888506728, 0.021992621426887217, -0.039394286320460256, -0.2838315485815866, -0.43062287369834057, -0.5554027724694579, 0.14179372166507967, -0.021355443421420196, 0.1850853022191612, 0.16102997524852353, -0.4053922031241263, -0.31516418046355177, 0.03698676610662808, -0.024615995724717624, -0.07208686839802847, -0.019588288185678947, -0.12790148459117745, -0.38075253097394623, 0.035596314996648386, 0.7281603286171858, 0.7991488978804664, 0.28613263454663346, 0.052189242026156574, -0.1734619569752251, -0.05121318439771095, -0.09704633871399755, -0.1364516532826918, -0.32757857284120057, -0.04171988816027205, 0.049627849815202824, 0.002433152475484984, -0.09334306351341125, -0.03588828575658313, -0.30436362241627896, -0.4314740206807327, -0.3690588193283238, 0.25218549834480675, 0.20734811401111392, 0.08221068110299629, -0.014639775393787417, -0.482966904917361, -0.37514717397701847, -0.031712790592110074, -0.22859164233036403, -0.1676428078619884, -0.0986289471604821, -0.2533364165242235, -0.44397384701603093, 0.08509107971066238, 0.6541365808784453, 0.6424892664907612, 0.3574690076119772, 0.032263105667570624, -0.014225064005509176, -0.033319493821341854, -0.07340040221926442, -0.11023246026943202, -0.29277310511526056, -0.23115967988097919, -0.1724417498818144, -0.12050874237612666, -0.1735056395626404, -0.2568747547616806, -0.5481519903960822, -0.7971502513123999, -0.4714255451983194, 0.040093958235277324, -0.11485069250686827, -0.12108383779961701, 0.0713792381601411, -0.2749664407743182, -0.18155168658206836, -0.09516207626393906, -0.06427825551593873, -0.19555624471606398, -0.08981051175566936, -0.15012568996335954, -0.42045033114908853, 0.10742549459572555, 0.7254937681737665, 0.948256726177086, 0.4745350145544485, 0.15758131362802946, -0.14056343071570906, -0.019345984425823685, 0.11390572059392684, 0.16547373454843345, -0.07698031343007332, 0.18302467777408518, 0.33673117973539357, 0.24494977243810884, 0.21502460206942087, 0.04372123182875269, -0.2313649617571766, -0.20458479970726276, -0.4341497984748089, 0.34592503236372657, 0.14469778693830643, 0.07758907916114915, 0.3484889669539181, -0.018770346312661963, -0.16476731963799027, -0.08883577728887096, -0.13656285686401862, -0.22229122674433185, -0.15018872956205395, -0.03443962327607121, -0.3219612841528834, 0.06988545670791957, 0.6928181244432992, 0.7683110261957621, 0.2860658806464157, 0.010127322916068023, 0.02999128197255867, 0.17222471873710712, 0.17747277860639865, 0.12729471816317825, -0.04724160718107155, 0.12930352493035957, 0.30850449647505956, 0.30403238890439277, 0.2627310800155046, 0.11979066093378574, -0.11189930764943297, -0.18803901977771734, -0.8629254515532456, 0.14173521359536512, 0.015805990852816587, 0.05347463767900292, -0.02013414106679064, -0.3166101931691413, -0.30806675009427664, -0.2816049661748626, -0.1942266417512475, -0.31712445435624687, -0.17066187775030117, -0.34481839674518405, -0.5923743336180547, -0.0994258769302184, 0.5864435496897425, 0.5840303304058911, 0.23921231965070724, 0.14978200416492315, 0.09033380942890196, 0.20252523517597798, 0.27489139506992866, 0.3647832655095902, 0.050394223397196916, 0.2225587812835644, 0.32550209903942595, 0.28778209803988974, 0.284370031679723, 0.17220052990169257, -0.043560018922039, -0.20031414444470166, -0.6359683211157362, 0.22968059545725586, -0.015443954765021221, -0.014255659284837185, 0.0097060691978138, -0.23299135147442984, -0.32442873289146273, -0.07239253241555302, -0.10996125012500685, -0.22278348893544292, -0.29277193019903164, -0.14307530376955502, -0.44449245224046074, -0.0680988279065095, 0.5073334108021991, 0.7155347988717756, 0.3372103352218997, 0.05449792508869242, 0.0932547202910785, 0.11492603407829893, 0.22543464427522256, 0.21507228899179154, -0.04702470508702462, 0.19323929977789295, 0.44680182038872396, 0.34929963465071334, 0.180197870459741, 0.21542305572910958, -0.06594124854770328, -0.1564000097638832, -0.7032048522356554, 0.11367668773762815, -0.1719614474707258, -0.21128460009363473, 0.14229346436682, -0.28084233255680013, -0.19853077309680886, 0.025028824793316636, -0.1379257733591409, -0.24483865843573166, -0.15315332418388108, -0.3000599871020912, -0.34790009569528146, 0.3190571984548103, 0.7477758659155705, 0.8851906337790408, 0.44246832914143036, 0.02079972192886121, -0.07754775167533633, -0.025577421151703812, 0.09730423669086322, 0.04417096724298131, -0.16249931228447534, 0.0407161359402019, 0.2511991997640982, 0.29652966474441955, 0.16242963621123757, 0.10771652831212786, -0.10342573444278921, -0.22137936922732984, -0.6667719921634595, 0.39327633656665795, 0.16944480815196616, 0.1874562905709951, 0.49385939198396156, -0.18034540597541562, -0.24854710466051436, -0.07366043913387824, -0.02562966661716436, -0.07712029261538411, 0.06493630647528982, -0.02248566958864676, -0.6255620021866255, 0.03792732757914592, 0.6440510142015078, 0.6742512154430365, 0.22406746459373278, 0.01681221878190349, -0.015124495558142095, 0.12445145306768751, 0.0957966490188032, 0.06370944466944249, -0.1401520022088876, -0.00572215412674067, 0.21993293496302446, 0.1942990866846223, 0.09465637059163465, -0.018536288874230967, -0.27751599496692997, -0.3760164746427798, -0.5277228835516348, 0.30382943031010307, -0.1680870250522076, 0.20397681870269999, 0.33255633469908086, 0.052322400799628375, -0.1586526925573176, -0.05225841805349146, -0.04991445688096918, -0.23609090288788037, -0.14898500932964803, -0.18190843856002914, -0.36433692120612143, 0.09176302446645884, 0.6317333304732238, 0.6117047798094271, 0.09127800477914966, -0.07341772220456619, -0.2673603707667872, -0.19737292386494606, -0.07722341929221607, 0.02534867465765889, -0.14608242309964156, 0.030874589255183216, 0.14322845823970204, 0.12189590340185541, -0.09660057284923285, -0.19465554305457855, -0.3367539235532329, -0.5435197137650974], [-0.04816972564690613, 0.18250465652529332, -0.16725259694769942, -0.11962189634281825, -0.22278800666975646, -0.04324477653931641, -0.046725146017926336, -0.09033045381686163, 0.2569269415659129, 0.3400982703532141, 0.15827731912852602, 0.09370924619988825, 0.12864466049181494, 0.08427784207048315, -0.20832339180990145, -0.16028805983994532, -0.17518020396540981, 0.03559421079095001, 0.19470836711679496, 0.11525252690651841, 0.09400041528665211, 0.01506427810617036, 0.16040512964460116, -0.011064601243648109, 0.018516589726287246, 0.16264073026198733, 0.15363781935913282, 0.05653968144738831, -0.08113311741459169, 0.09087189833716917, 0.02436214546574584, 0.0647935636382518, -0.25358814458534534, 0.1243671254458117, 0.1584796090283671, 0.2155604179757022, 0.022893903952925745, -0.10075398134080102, -0.03690808681770532, -0.2000524701005288, -0.2564882789135254, -0.08070380404483798, 0.3353537674861745, 0.15337002845977069, -0.3271286432348119, -0.4829365691150178, -0.38038442748781476, 0.043043670079633785, 0.09672013710313766, 0.2128565413997053, -0.09380160256055413, 0.014812344624503948, 0.27831058249574037, 0.06277989921200491, -0.2134458094712513, -0.17822273285273316, -0.004383168086095717, -0.026175186559974185, -0.19073401437527268, 0.0038791574410029016, 0.23212509876290893, -0.06130193972392819, 0.019392730002442318, 0.11854095884976515, 0.028475927649719547, 0.1919874526407447, -0.07837238541835424, -0.13181420722592316, 0.07608704278049472, -0.10065618253875215, -0.3742658025662377, -0.2521965951067302, -0.04304855112951386, -0.007228101875196506, -0.3619334104225448, -0.38416819665943125, -0.31342893195891536, -0.04688751594429059, 0.17658437928456364, 0.233503616280913, 0.08105563951318218, 0.03897330705102336, 0.4151509586974889, 0.05731549795370073, -0.17235185628509095, -0.18460157682358666, -0.037841514011024056, 0.011321250384880185, -0.168418309911905, -0.03309921699791568, 0.27947039881124836, 0.09544991661953185, 0.18649282092992694, 0.15390529707814332, -0.14752502187691335, 0.24649323383963762, -0.06083054422440802, -0.13784354675283414, 0.03344864120793, -0.14373065549383707, -0.3554971934714458, -0.025449698243040244, 0.31232708271897897, 0.060223839787459967, -0.36131059345810773, -0.32106775339185073, -0.031632158811677136, 0.20877311516360625, 0.2942021317251982, 0.4176712470189729, 0.11911375659144124, 0.21414926176412644, 0.3725975315891337, 0.12372468748624296, 0.07833894223036637, 0.4175919003605523, 0.5040188444799296, 0.36595948955994834, 0.19840279314477005, 0.33716897073764784, 0.8430699171754443, 0.5491094941920145, 0.4357622812723623, 0.44995103977118706, 0.09698654684892873, 0.11386883749172211, 0.12591496105704247, 0.23411589390534432, -0.06188507007055252, -0.2310184724142797, -0.6281540696145566, -0.2995661202099053, 0.23186705970175361, 0.15121541602680913, -0.45993589397048074, -0.6806901897979754, -0.6141080019580585, -0.2711818654388357, -0.08548564350968457, -0.031205664782688013, -0.13758240935589558, -0.08363792066690368, 0.011091675475109988, -0.17842363880996479, -0.2026946025401933, -0.01284512128649344, -0.010707813933187758, 0.06438714412843487, -0.024970424769402463, 0.04944374213482206, 0.799790345888375, 0.38070383283967174, 0.4545554415032778, 0.3163848771418347, -0.1218624471426441, 0.43546386386226615, 0.2554369037152373, 0.3195880552933269, 0.44395309401665595, 0.19429158663375443, -0.19342851372835837, -0.1562694824639823, 0.3173211783246418, 0.17838887132641779, -0.14256341884113827, -0.3510662628860921, -0.2876865063163282, -0.12779313435926276, 0.045000017895629935, 0.1644821148053603, -0.08270185084300335, -0.3010446834631993, -0.01627463812825913, -0.12358284224854582, -0.04731727943899184, 0.027132630858999515, 0.22690763080201484, 0.08632532726436278, 0.057446098194521615, 0.30533915366713016, 0.8286799219681029, 0.4323555749116966, 0.4655779417531992, 0.7475469798437688, 0.4132625426035214, 0.5444493560834304, 0.5170994286141091, 0.30011437053452694, 0.15406083639750193, 0.087945484125088, -0.10702936095594068, -0.10361710066771858, 0.19709333120951253, 0.03856080440001399, -0.22529417837917803, -0.3121108358320543, -0.3563558029287557, 0.13659683555800156, 0.3275483101756893, 0.3017339669596324, 0.0013999714499959542, -0.1954544635309314, -0.00013183146893847906, -0.20723206373998435, -0.40454871553680183, -0.20933990168235456, -0.051168654193616034, 0.029205907702848706, -0.10537982609687402, 0.04651639380422583, 0.3867951603675041, 0.2052753719163671, 0.26875724958738606, 0.06032274201133152, -0.24264728161827104, -0.10277485567981826, -0.005841385963821605, 0.0014093934319190382, 0.06454297464048311, 0.12630885219802007, -0.02075916571947974, 0.14037706254517526, 0.2332438950720721, -0.04142203224662362, -0.18016214568707845, -0.1946713053933669, -0.3578463505376326, -0.12004162040144623, 0.24320466546865552, 0.31810193226709754, 0.2692736421792265, 0.16758819666719973, 0.24886891520102794, 0.08365965151057422, 0.016020995318817823, 0.023157181403231468, 0.23874646139619846, 0.30856399467669066, 0.3269066340690451, 0.3496559891941976, 0.505305621265513, 0.23025983380967105, -0.033601991008310114, -0.10817613269282907, -0.1868749171692826, -0.14029471052361406, -0.029081207967668752, 0.09675081640566013, 0.25799730617554617, 0.10564883436159125, -0.11972261788012611, 0.07551880258309099, 0.16618152748172513, 0.2841285822907081, -0.09792142513739263, -0.2514745128104147, -0.4662149172911316, -0.12319933739246595, 0.18497898700748147, 0.4842411848340071, 0.3265662915912819, 0.1400613549937756, 0.24281752133407766, 0.04744114579643408, -0.07047639127956726, -0.04813523103018932, -0.08217885727649474, -0.13939447752753462, -0.08588604553527154, 0.0789046307836309, 0.05915200115642299, -0.24606506803036235, -0.2608790776937416, -0.18508022235124594, -0.33328477564895703, -0.2519835121875978, -0.134899301332637, 0.08041838697852988, 0.3061163397250388, 0.20485167733243786, -0.23082081784257757, -0.10156363469929255, 0.33743214879076505, 0.12668658093749316, -0.0916508584190439, -0.10107498390608619, -0.3095100944481869, -0.029231187551867967, 0.032582481825124306, 0.19720384957646522, -0.022669049605468665, -0.03057116090628212, 0.26273410150302334, 0.013403055420228217, 0.06888444054628888, 0.07641927445248352, 0.22627757976756216, 0.2265850028301642, 0.17755738944302385, 0.2707733632880149, -0.028423215859097826, 0.008108731497296373, -0.07403162570451971, 0.050169633661474713, -0.08426026243048357, -0.03935706253185339, -0.2556193005677164, -0.3470761082147982, -0.42715679531691436, -0.3071872111492413, -0.39188978937512314, -0.19662628341602123, 0.0009690636978725167, -0.28765356913705115, -0.42435119770282587, -0.43064320387602595, -0.2658041570950675, 0.08199786300351365, 0.3549239450039803, 0.36808145278987636, 0.2731836702757335, 0.2882983627638943, 0.3549806485097643, 0.15214715686336538, 0.13665167608360348, 0.279269534491462, 0.19703425429363053, -0.014901637493979823, -0.07756702145701355, -0.08057237639979835, -0.47129119378206813, -0.37837014264529084, -0.37205485405744676, -0.35521140600736933, -0.25807259254033643, -0.07620310108077324, 0.02707101922271426, -0.09334182278196379, -0.14188550831488964, -0.0018832506413218764, -0.39155583533579463, -0.3161965371524078, -0.008575701952769117, -0.019324628745261092, -0.297738554853205, -0.5176190062702261, -0.2673245402162839, -0.02030832126449595, 0.07416275924239757, 0.36304985626819325, 0.07394193641408556, -0.019581240768136027, -0.05279385109375484, -0.22120935899890837, -0.28151069890672475, -0.05222991987017832, 0.053075500487607986, -0.007853094229330239, -0.02004762688924215, 0.05148042659134183, 0.1800931300906629, -0.11235352135009985, 0.08545446027653149, 0.12776939835124998, -0.23734538114507867, 0.18316707206049324, 0.1970868182174259, 0.05335902752583361, 0.15501326217021705, 0.30091467223352625, 0.24570338051991905, 0.11908224648496286, 0.11527457683411092, -0.13943645755170256, -0.2735703530597822, -0.4840439276248134, -0.42228800444071307, -0.2126281119262389, -0.14305091363903766, -0.05287508522320798, -0.20430632682038138, -0.23902253494580247, 0.041834046146468455, -0.030363606105956228, -0.26725969452415566, -0.21491125233173433, -0.10441811163239449, 0.002828672343427634, -0.11243095434307412, 0.0039772152529008765, 0.50589814264234, 0.3226029133702521, 0.3874651286088668, 0.5865601003297356, 0.4566461163298038, 0.7504264689330654, 0.7217007861725482, 0.39280517627544576, 0.4476202395761235, 0.5278100814562503, 0.3127584819686512, 0.3355786004030867, 0.4037039508778689, 0.2656909109115411, -0.11417125331819296, -0.07563985308403277, 0.05807872389032191, 0.007469686809492266, 0.08516928405075312, 0.16090506886254768, 0.03840901498530231, -0.06917081872183249, -0.030537447151434215, -0.16394651928258872, -0.2711528100554263, -0.33761640940025667, -0.23055532782192156, -0.3133082678640067, -0.35599513270126876, -0.28540893893908503, -0.06399151571439333, -0.2883510722064262, -0.3713987268592481, 0.10193793210183588, -0.03192572500022915, 0.17570601925098464, 0.20544994617227777, 0.10792992564744538, 0.15787886236291188, 0.0328139094884473, -0.14340231005263565, -0.1361469771651178, 0.02903173788579771, 0.057204819021398075, -0.2510999046994335, -0.15725422377762727, -0.24812438738146098, -0.03350475344257313, -0.0844168885943655, -0.16240322567788645, -0.24284245461394793, -0.2509484757252446, -0.1892295782917126, -0.4327672541293204, -0.47903153540650845, -0.3547615579288214, -0.3994502907803237, -0.42034776896268033, -0.35237611547535674, -0.31029286792957167, -0.4036583008817692, -0.4816977387743277, -0.4848517040797333, -0.18290997077253157, -0.4033792765810873, -0.32362489008640216, -0.2207717481299766, -0.20630827357761308, -0.17448619965751092, -0.1812769581712557, -0.18670117809476272, -0.14204229031367563, -0.12744082976965038, -0.24369285092502385, -0.36827723588572525, -0.44075267506022997, -0.30100778426157493, -0.1364515967090471, 0.1447284221302492, 0.15473923595135677, -0.1849988741586715, -0.0461176427268248, -0.023336111097820487, -0.16149737120756755, -0.2009524963164611, -0.01601820796533121, -0.12593519504358347, -0.08199571079832675, -0.01044542000104324, -0.05534516587200473, -1.4046279113897089, -1.338766002127336, -1.2928742818521035, -0.7802428648450304, -0.7099031795624043, -0.6450964901893899, -0.6096752395585121, -0.5457449676396161, -0.29660339324984547, -0.17720037170599973, -0.2787397941090304, -0.3586814352120613, -0.2622584080469981, -0.08764514319222569, -0.23481734721802108, -0.3264563543078365, -0.22079704278710074, -0.10640179663946799, 0.02118890309239861, 0.20383443354717834, 0.26347113228291763, 0.2748520080194161, 0.300740820534798, 0.22255612546039075, 0.2182713887883724, 0.12479240067709149, 0.12912540291862729, 0.10734447069313291, 0.09738940224009987, 0.21111361790353053, -0.4143832774696757, -0.0851250090621641, -0.4143778867697946, -0.19524470395780175, -0.37116463735307176, -0.32445233280335006, -0.3580806805604956, -0.29218319641289486, -0.13152081480806926, 0.06982383556150648, -0.03221789824319826, -0.15434893974316719, -0.07820003098708472, -0.07891296292259342, -0.18819337446909903, -0.08990142313609706, -0.2462895601909631, -0.13194826480043262, -0.15708534712137867, -0.022622169462236053, -0.021706191066888248, -0.11984979773439906, 0.03730958649720075, -0.069501386052671, -0.1695213736554537, -0.17930678576703696, -0.060894384624707705, 0.010414784610656093, -0.15143101338855275, -0.12486264156211725, -0.22545478473834413, -0.3641273886075851, -0.5939348544101498, -0.2354727876707435, -0.3355863967794163, 0.037092577846327315, -0.18355765603364937, -0.4473675596444438, -0.10059341158418784, -0.17600846748966822, -0.2053806371401604, -0.11560322059576872, -0.03328988150658106, -0.06777374086857348, -0.24558912719914244, -0.37637360130760206, -0.17351822461605368, -0.014540732700081924, 0.051697733039497665, 0.324995628961694, 0.12078670007205959, 0.07723838423273797, 0.29026570175243627, 0.1867606983930972, 0.22699686214008624, 0.2711085709623101, 0.38846227418822343, 0.3242946441768582, 0.25133547893708125, 0.16634388603430883, -0.15482076774608083, -0.14162893838674406, -0.406692597336546, -0.23591046448588743, -0.1790296976582757, -0.049054337714160685, -0.45191835444577627, -0.6377350888978075, -0.372200801286982, -0.12274341073787132, -0.22205696058258367, -0.027047905318051353, -0.042361509983741275, -0.08794648576368708, -0.29235237490891375, -0.4286958227953381, -0.2002891805554046, 0.04390503530786589, 0.04526357297224321, 0.049213113135130444, -0.09503884468920872, -0.10768089850834874, 0.09915453882244357, -0.0053041734326072535, -0.1834445790824453, -0.11540669850780395, 0.0017864029769640592, 0.01959850897985184, -0.06930674432874177, -0.13069758220315272, 0.1044333078060637, -0.08236659843881537, -0.3458733021915611, -0.5616075421439489, -0.7843833843714694, -0.47173399217087897, -0.5821945038362999, -0.7757181620293935, -0.17157751886932482, -0.10107275872383238, -0.3411749550248634, -0.2707836896286524, 0.12290289758736166, -0.06824160035867284, -0.27534162688892444, -0.33881817737960174, -0.29751624499367363, 0.0665219332623092, 0.032099308489299684, 0.03659118462907019, 0.09015198299097343, 0.11535704330111898, 0.1783774343887683, 0.047732796445222915, -0.058140332382429855, -0.0036861893764438764, 0.13192914316686416, 0.01920244509316735, 0.05437425733753193, -0.02669911361630361, -0.2069875033374276, -0.23376002611981728, -0.21799055273911117, -0.3649202914977778, -0.6369777581911553, -0.35683774519428324, -0.31958970011769255, -0.10950879049784747, 0.16087883866712624, 0.35432173747660606, 0.08817212359876787, -0.10054495044535264, 0.1516060393794485, 0.20997644313623345, 0.03333898977098218, 0.13692134283436094, 0.12060405135985004, 0.22091700850219956, 0.005783474836575019, 0.15734923957012822, 0.13868231776677464, 0.2277003851276883, 0.18478166555412556, -0.02861345544719917, -0.17060207294870136, -0.08290768035738696, 0.0540782484689966, 0.06306474601603415, -0.05155818296004578, 0.024010345223741795], [-0.2716910462376284, 0.3272293574628477, 0.2943018926605909, -0.08709826411074455, -0.03883037365819776, -0.12627273178458956, -0.0015536221814440273, 0.17525461791683458, -0.11147871503655762, -0.2259638384674923, 0.1726478865734921, 0.3567373121578647, -0.05419367123612925, -0.03186158315524622, 0.41633784725997036, 0.2349482787026919, 0.18414769491048474, -0.021272591408850346, -0.2254451881720245, -0.31375365978226283, -0.33604450767909416, -0.20400504555462518, -0.4005367262840312, -0.2007115954602805, -0.09713131795685472, -0.3349399153427595, -0.3649318090459805, -0.27767085843690653, -0.28229744722783273, -0.3707197491269012, -0.3258567529870031, 0.33084583163840436, 0.32510067859580816, 0.021821081047667956, -0.07720429443164557, -0.004063706398256999, 0.18109280565811506, 0.2577881503034984, -0.2809551694102333, -0.4311267830538417, 0.10774659501539664, 0.41768252832766395, -0.024855747944216015, -0.02529301506969643, 0.5096786444551272, 0.5512975472660527, 0.41296843409189155, 0.15922357607291845, 0.0010995948673259194, -0.1739310517541817, -0.12649048036930247, -0.06789436973862116, -0.22818063644708517, 0.05886737197778586, 0.2394224369036833, 0.0898448689664813, -0.07109107886310581, -0.03557053739456202, -0.058087097840734014, -0.06568143146684294, -0.042332976366579615, 0.5173343664989988, 0.4117894436340823, 0.30109943223351915, 0.027288952671105746, -0.25582596377080413, 0.09580019471820043, 0.3392062039593999, -0.14321403474561012, -0.2502992942896977, 0.1530770931425575, 0.3761904181821339, 0.03512502387677184, 0.022520351198301588, 0.34158839132976104, 0.3450907395837566, 0.25599865543611633, 0.028263989368076593, -0.3043880868491641, -0.3464722241420489, -0.28797100656780206, -0.20385580201275844, -0.3407744219360638, -0.06730546518437605, 0.09121688638585063, -0.04974564547504276, -0.15743103572931944, -0.2094870816690738, -0.2245280755846315, -0.24610045797505112, -0.29301753121352625, 0.14033010941525534, 0.0764631797955164, -0.16454793970439002, -0.18593797830981493, -0.32953790380381215, -0.03992299739325158, 0.06817708595129758, -0.35746909757416945, -0.39209164828266424, 0.05022585224666962, 0.18926202821013338, -0.14412528423457607, -0.1530218435435716, 0.3162119267751605, 0.3237423689158638, 0.2890793586829728, 0.17257058803636105, -0.08464625450159988, -0.1523463487018703, -0.005319655602843698, -0.07282884493462201, -0.1331630667274254, 0.07060861909355541, 0.1362925058275799, 0.04796382783469614, 0.008302715769495993, -0.02831853516109951, -0.08771727307551087, -0.14937984762955087, -0.31393025558242393, 0.1716331377810364, 0.043850123141962564, 0.08266364450243605, 0.15522494260638073, 0.12713624628570575, 0.21533163237365427, 0.1893632434866818, -0.11601884158977264, -0.27552347276825256, 0.024431002501096893, 0.31458832062493364, -0.1696997497705885, -0.2048226915546533, 0.4025653620376498, 0.46113941569369654, 0.13228816488974182, -0.04506956119336594, -0.25467112418043153, -0.17057443228830757, -0.0634320716339718, -0.03967998084175623, -0.18342786496197463, 0.14302300157387074, 0.2997694009876875, 0.05629388965503175, -0.06163452943171909, -0.1055052222385558, -0.08458494390428017, -0.178295656423783, -0.49519071411180654, 0.18825102619227754, 0.002749829631580548, -0.19689887854318852, -0.0488203140859382, -0.22632181854347708, 0.19122836950135155, 0.27835250204111633, -0.17791337891186654, -0.26317922211010863, 0.15199860239973473, 0.5248940366427066, -0.0835302778264195, -0.14683349613890723, 0.518180785901287, 0.7008740200642789, 0.4902323436283675, 0.34428693857911624, -0.06976820582409435, -0.07750956615088145, 0.05298893269772691, 0.11283039508682981, -0.12934002861439156, 0.2206873688154109, 0.3399930903602025, 0.2030289239510365, 0.1168009661898762, 0.15226889022385498, 0.11392037200286421, -0.046012495591925225, -0.31575577605842853, 0.4340534448944572, 0.4556726261498216, 0.17552669664614812, 0.2077371192618683, 0.022413576681511872, 0.31431821449195235, 0.10072793460156029, -0.23047696682852478, -0.2910361663198181, 0.25560678282651417, 0.49948070123314525, -0.08368018295346358, -0.05386037359439336, 0.45159476601186965, 0.3417655885403616, 0.19217141446745234, -0.21562709942213237, -0.3650510882760334, -0.4352465848516592, -0.27962690502432147, -0.2317054410772055, -0.3849821794996024, -0.10268474319474502, 0.01712340692281884, -0.18789046808855922, -0.327395477243217, -0.34057298143487785, -0.3060999650401911, -0.44894046536111126, -0.37093136068605875, 0.19415630218363467, 0.25232575602498075, -0.09491639232256815, 0.09228237896247246, 0.06843338380964407, 0.19553973366842348, -0.0662299110736298, -0.45646140859239, -0.4366688418925923, -0.019002272933008567, 0.24553227288365, -0.23992398539354645, -0.26069124285391965, 0.2964681232596626, 0.4676258019224087, 0.262127340972092, -0.11721003424569347, -0.21751188520735495, -0.1430323300865568, -0.1258794159750431, -0.11872677913382679, -0.3173676166607463, -0.0013870975242183327, 0.13367581923928298, 0.0083308408611156, -0.15669301656967685, -0.1295896764970677, -0.04511700988045431, -0.16020672735875668, -0.3202453591083854, 0.44859578903820607, 0.6397578869616867, 0.28535622351938805, 0.35486276014711543, 0.15635561641750476, 0.18609966593076324, 0.09188439839411494, -0.3406840216640043, -0.3401323500692916, 0.03380137113035431, 0.2221709820507864, -0.10907935143083997, -0.1632322688513948, 0.3600595046972948, 0.4799915790557083, 0.2990687257835602, 0.01819571567500862, -0.17084584648101825, -0.25332292040714294, -0.23468557761793196, -0.13118133278461463, -0.11948338176908543, 0.15333987800302828, 0.2916117242417619, 0.12903218241475106, -0.04351772173506457, -0.08325597032725424, -0.08329501511608872, -0.11157635556124468, -0.5601404634430156, -0.05310704858063751, 0.07868088129737207, 0.05379900024787674, 0.06631737613400165, -0.04012477101213814, 0.053521353758734035, -0.08058625984732455, -0.46675377895965425, -0.4972822220997316, 0.007218531742736221, 0.18339625352830902, -0.18520359296071318, -0.08138132592785847, 0.3921661694572007, 0.43149367329952887, 0.3367733561019226, -0.047680166735020124, -0.2741007455450434, -0.2945186201762089, -0.17387760932811788, -0.010761180736774898, -0.22024766633392945, 0.03655412966434464, 0.19522416856556457, 0.08101418821222006, -0.11185343101491581, -0.07159547577585385, -0.13485540658046735, -0.26131456130489106, -0.5896868953103599, 0.06550208874268945, 0.11938758400273124, 0.004658238415475725, 0.059094566720199145, -0.10089279696173216, -0.06258854880638787, 0.24518989624117804, -0.029512944465454265, -0.12680888289346323, 0.22720226513753805, 0.30044369094952483, -0.003795247355288648, 0.16574448869446753, 0.7067984693590894, 0.7319130191827944, 0.5105575447233162, 0.16114730469381838, -0.04562630576281167, -0.002610594033706191, 0.1393179902931417, 0.14961194351597876, -0.1493648715415585, 0.17055629264488373, 0.28493234691185537, 0.08049982940832963, -0.03740861360293706, 0.11999953152881092, 0.010506931435913601, 0.0295183087447146, -0.5249561772638244, 0.22318659277274183, 0.24934971911235143, 0.10776542981627651, 0.07173807814136354, 0.019948186689462865, 0.26654443695650676, 0.2360452016954425, -0.09400191775943405, -0.3171349826501756, 0.27384387402744476, 0.3755824227629439, -0.09003439648111028, -0.1810139266250078, 0.3030716006340516, 0.4660772931394013, 0.2764551064389559, 0.12663499662109381, -0.08347121016388868, -0.035550587909938335, -0.026403066528834524, 0.0003608160225524784, -0.14181423217982564, 0.23445638760558676, 0.28686648294878253, 0.09087261542944017, -0.06309150092827814, 0.04078992635958867, 0.08240577770475575, -0.01815571911610931, -0.5030430891904323, 0.11168309381380982, 0.2543631524714594, -0.09694791442244755, -0.00816298177564721, -0.13570650969193712, 0.049393110915474665, 0.034533616260915945, -0.20304379929933583, -0.44731737826047274, 0.0007820580054790536, 0.34461195794442023, -0.20666928979610366, -0.19814692385178972, 0.32437542533903724, 0.4688671659331743, 0.26492468002031333, -0.06574641405009186, -0.28323577874525613, -0.30172452633888247, -0.19424795882800158, -0.12014525139667481, -0.3583320544197557, -0.05694543543799116, 0.09378041346225932, -0.14250779877262365, -0.13906666205286558, -0.11559517857117975, -0.19471581947617572, -0.2899040594733633, -0.3339438989752219, 0.38753299447439693, 0.43252028815819993, 0.09013835555540296, 0.19470150222527627, -0.08764932491391475, -0.13313450379501704, -0.0523899628014422, -0.08950613701448443, -0.1234980640249304, 0.3330798634595089, 0.4835133890560721, -0.13800455784875792, -0.07518706876699835, 0.5451841049873855, 0.6086456481753625, 0.4578401373139133, 0.11999360196026113, -0.16697028437797237, -0.25579138127878787, -0.331729185439724, -0.30343192650766065, -0.4532841013058417, -0.09369110541202355, 0.08702959180535404, -0.07720327760815725, -0.278754663101677, -0.12964130584890196, -0.20001716469022335, -0.28978361119580265, -0.3142391416909402, 0.22313264946618033, 0.07480203342764173, -0.10616556956767835, -0.21027135671241762, -0.23994347921780232, -0.062493847345480254, 0.0024292282234682078, -0.39388813078550394, -0.5561250015839376, -0.24659400474890142, -0.03159558411858338, -0.20978869943950318, -0.27682072937146973, 0.2962864470247294, 0.3840912168318211, 0.3524671282428209, 0.08769793044700801, -0.009008534651003477, -0.24038743664049494, -0.2590189779676982, -0.21262941996562185, -0.320406888621699, -0.08391628932781074, 0.09805068982026187, -0.005889411976883626, -0.022220391428194215, -0.05343804716399473, -0.1590706430685996, -0.29689396787821926, -0.2175007103715676, 0.37398676209978293, 0.1936611088138544, -0.1097054377138842, -0.09773393718368531, -0.057855543488377605, 0.026590587315772997, 0.17784481242192499, 0.0013075516056455763, -0.05869154770068277, 0.21049506965098255, 0.3808284947320895, -0.027653055013745563, 0.07869727418726619, 0.4925435257786997, 0.6582007333037989, 0.615126649244063, 0.2838508181514432, 0.05338805727909608, -0.171293773347238, -0.05095492043299508, -0.10062238432751794, -0.2055430826061705, 0.19548333216462413, 0.31801747084014864, 0.05930968502232892, -0.007201572822597281, -0.10042104287414261, -0.17831013280913074, -0.10293282258049789, -0.0995054354800002, 0.4360709415755637, 0.3489502189562014, -0.0028438661928037734, 0.08468819278548996, 0.025701579055172587, -0.028258767693307953, -0.1424401274369976, -0.24735030965010707, -0.1497645150744182, 0.12829958731504912, 0.33714589923919547, -0.01857105937819054, 0.030364253268339372, 0.42433736813266215, 0.4507994915280048, 0.3016056942470831, -0.023369995815300207, -0.3361203456617677, -0.39029462509233526, -0.3769228223046788, -0.34156936800233295, -0.44717138879284607, -0.15663334200218948, -0.025670822828862305, -0.19958603627317012, -0.30085487741820044, -0.25818358507094485, -0.38209628968413456, -0.35754069173423914, -0.39415789204120416, 0.18068566088629834, 0.1597411130972947, 0.012194780716786723, 0.002576355224219221, -0.06901449192085272, 0.020920797543564996, -0.12831918672189616, -0.3286294529480964, -0.3339225810303828, -0.035251590349893946, 0.20806846120470884, -0.04745061461017257, -0.1139951296356661, 0.4266829338796561, 0.4910565403578471, 0.49520075143019837, 0.26638171762358964, -0.06671556894535006, -0.13287082011268672, -0.07423410671507064, 0.08544970386615124, -0.022302811679273712, 0.23576833263411498, 0.31786088107616034, 0.19154915307488243, 0.04483733058658674, 0.06045170583224105, -0.0034502166928954557, -0.060979207650949385, -0.42021637976487525, 0.27375401602370797, 0.22914693828919472, -0.12631548389924263, -0.13486127630936806, -0.28660040222813354, -0.045023620830771896, 0.12218464556894956, -0.3026265529011496, -0.4434614617526524, -0.20453509340002388, 0.15500946239041272, -0.3303386570444209, -0.2853075694911139, 0.31004851108485526, 0.4760275012453021, 0.2905733784198476, -0.01829622979942431, -0.19670521762814003, -0.2611823156195616, -0.20544374216993563, -0.2585645682021373, -0.4097979539624732, -0.10767806261599891, 0.12506477151992862, -0.03463269075853346, -0.22136268408091433, -0.057870660598930285, -0.23216389965695367, -0.236934249584113, -0.490480687355061, 0.11863715166566385, 0.18773881095467757, 0.013021526922189466, -0.0010835414163152038, -0.05075554491296418, 0.17175011791203895, 0.18524282770329262, -0.17594670196585283, -0.2768379039641496, 0.09547918825985484, 0.2160349408384943, -0.031521764890143515, 0.02334887671285337, 0.5193958147641856, 0.6800949896855931, 0.5595159411515711, 0.1931157458909763, 0.005283033504689537, -0.0980159797156896, -0.044537825634510066, -0.0670323102089206, -0.189477927587192, 0.19183896585543153, 